620 32
265 -0.147598 -0.573331 -0.325762 0.170247 -0.802104 -0.121978 0.066777 -0.033803 0.717133 -0.060657 0.433345 0.627607 -0.189731 -0.161067 -0.043102 -0.825682 -0.428974 0.254858 0.011363 -0.281865 -0.437802 0.277024 0.259219 0.322194 0.283343 0.404881 -0.123148 0.179606 -0.121309 -0.293871 -0.466156 -0.059638
67 -0.308863 0.204489 -0.185009 -0.195496 -0.264887 0.150440 -0.052790 0.353749 0.975392 -0.028268 0.513740 0.802806 -0.703895 0.157289 0.078824 -0.781515 -0.547780 0.048658 -0.458178 -0.467446 -0.686031 0.281101 0.033769 -0.214917 0.285290 0.288114 -0.517812 -0.162071 0.313329 -0.332998 0.144570 -0.144533
340 -0.378233 -0.039396 -0.034387 -0.104085 -0.300341 0.070478 -0.004156 0.620364 0.760453 -0.322943 0.143284 0.493795 -0.349650 0.233564 -0.147441 -0.819728 -0.731009 0.353706 -0.294091 -0.450269 -0.534352 0.314014 -0.050707 -0.482856 0.110026 0.780760 -0.522853 -0.080438 0.183088 -0.428701 0.139562 0.120684
70 -0.452860 -0.144266 0.242033 -0.213385 -0.184977 0.193071 0.059659 0.284074 0.866287 0.179285 0.668223 0.758540 -0.437024 0.292403 -0.075407 -0.809063 -0.148857 -0.021014 -0.340139 -0.358514 -0.316503 -0.101097 -0.012469 -0.123932 0.626799 1.086684 -0.492711 -0.038527 -0.261622 0.004208 -0.297667 0.070044
611 -0.458124 -0.500211 -0.713599 0.386680 -0.601955 0.237798 -0.334776 0.049093 0.631499 -0.305769 0.449984 0.809436 0.016268 0.270481 -0.228479 -0.455964 -0.058254 -0.022338 -0.249241 -0.470235 -0.373488 -0.300467 -0.101010 -0.201804 0.033512 0.653386 -0.657822 0.146129 -0.128334 -0.559301 -0.651141 -0.128448
518 0.237162 -0.458242 -0.834622 0.361569 0.826743 -0.082558 -0.098339 -0.197777 -0.402441 -0.137620 -0.510289 -0.241292 -0.239143 0.193580 0.775697 -0.934673 -0.801369 0.070816 -0.197996 0.150473 -0.142103 -0.282369 -0.760356 0.298415 0.994458 0.912847 -0.474654 -0.139715 0.779692 -0.164129 -0.666559 -0.455704
90 -0.541240 -0.521730 -0.385679 -0.178185 -0.523751 0.412542 -0.205119 0.013869 0.375648 0.171939 0.123281 0.489591 -0.209552 0.283630 -0.404512 -0.690420 -0.412978 0.064210 -0.231441 -0.924709 -0.770534 0.345502 -0.085278 -0.074669 0.287980 0.743286 -0.325294 -0.022965 0.057460 -0.138642 -0.159991 -0.576541
56 -0.787184 -0.192618 -0.184589 -0.388503 -0.432211 0.029977 -0.187831 0.005103 0.664624 0.005970 0.143823 0.488745 -0.489306 -0.048366 -0.466696 -0.704824 -0.461199 -0.012820 -0.296322 -0.493426 -0.384962 0.150798 -0.021748 0.092242 0.593705 0.913360 -0.073070 0.092126 -0.150242 -0.530676 0.211597 -0.351986
89 -0.394572 -0.362171 -0.133897 -0.054500 -0.471137 0.195771 -0.352535 -0.193237 0.387812 0.423713 0.561715 0.633412 -0.475676 -0.193932 -0.351140 -0.614801 -0.173295 0.151045 -0.099607 -0.201262 -1.058030 0.235536 -0.083627 -0.053691 -0.106468 0.902512 -0.816277 0.125368 -0.071417 -0.822447 -0.267767 -0.142835
498 0.046469 0.156312 0.429355 0.312562 -0.324982 0.582958 0.078006 0.289810 0.496101 -0.131592 0.029347 0.680246 -0.480414 -0.088345 0.316850 -1.136287 -0.352155 -0.659486 -0.301941 -0.595280 -0.482721 0.276156 0.130339 -0.479866 0.875678 0.385870 -0.013257 0.171936 0.456602 -0.094642 0.069642 0.089796
505 -0.288283 0.488279 0.142245 0.131544 -0.328615 0.129944 -0.604412 0.284382 0.634026 0.065092 0.438213 0.804803 -0.585449 -0.332115 0.020466 -0.985770 -0.215560 -0.011751 -0.366007 -0.650874 -0.455792 -0.046892 -0.107830 -0.261730 0.476728 0.641186 -0.255836 0.034508 0.186609 -0.440586 -0.139101 -0.289380
288 -0.630350 -0.095257 -0.366410 -0.148301 -0.213591 0.281247 0.041604 0.409519 0.453833 -0.005504 0.561114 0.394148 -0.252047 0.261148 -0.316035 -0.985792 -0.496784 0.361073 0.076341 -0.171443 -1.002214 0.393006 0.062267 -0.098308 0.430689 0.862580 -0.848399 0.039634 0.406536 -0.128638 -0.221870 0.173557
31 0.119743 -0.295392 -0.633549 0.539119 -0.044318 -0.122143 -0.290469 0.388128 -0.147629 -0.028355 0.074367 0.049515 0.221705 0.115068 0.902009 -1.074350 -0.508846 -0.376634 -0.118838 0.298438 -0.153298 -0.960973 -0.475865 0.408588 0.703333 1.003536 -0.248185 0.199808 0.429873 -0.263771 -0.808184 -0.348276
87 -0.306174 -0.801941 -0.319062 -0.178086 -0.907859 0.435338 -0.457050 -0.048818 0.745450 -0.102168 -0.079760 0.606406 -0.746143 0.204789 -0.351081 -0.521706 -0.461970 0.139177 -0.081538 -0.412885 -0.609490 -0.256269 -0.349522 0.404301 0.227850 0.816249 -0.082093 -0.133807 -0.047770 -0.293621 -0.091848 -0.204246
182 -0.064641 -0.809996 -0.351677 -0.061559 -0.740355 -0.098092 0.051510 -0.075600 0.590661 0.206930 0.024459 0.521839 -0.796838 0.308347 -0.387731 -0.676548 -0.525812 0.119935 -0.321654 -0.864245 -0.431815 0.298261 -0.247976 -0.152370 -0.202698 0.756439 -0.484590 0.424377 -0.172339 -0.224435 -0.190561 -0.682442
524 -0.099275 -0.399195 -0.571957 0.509979 0.631042 0.168719 0.100881 0.068953 -0.555376 -0.178994 -0.463893 -0.088449 -0.323411 0.020763 1.403670 -1.086128 -0.323621 -0.242027 -0.459693 0.329337 0.192671 -0.674561 -0.115677 0.210802 0.701632 1.218569 -0.867199 -0.264778 0.973549 -0.219766 -0.825602 -0.499721
317 -0.685018 -0.333484 -0.306149 -0.273156 -0.626969 0.094292 -0.285619 0.000053 0.529821 0.000391 0.184692 0.420294 -0.198612 0.095980 -0.170261 -0.871903 -0.163196 -0.102992 -0.755098 -0.681082 -0.872026 0.220235 0.042693 -0.232107 0.581068 0.047284 -0.732744 0.116522 -0.053516 -0.377549 -0.381412 -0.211674
198 -0.310571 -0.742932 -0.075751 -0.412661 -0.932629 0.247827 -0.418162 0.448463 0.563322 0.085424 0.489896 0.418499 -0.286194 0.063611 0.036703 -0.380421 -0.271493 0.369671 -0.512392 -0.588801 -0.400088 0.064097 -0.465540 -0.141970 0.359571 0.878461 -0.102352 0.040713 -0.211206 -0.598398 0.200304 -0.577624
217 -0.318897 -0.406669 -0.062793 -0.423291 -0.421551 0.364402 -0.443284 -0.491805 0.674966 0.116169 0.052397 -0.096259 -0.527532 0.457458 -0.192522 -0.476812 -0.266622 0.165111 -0.348686 -0.689655 -0.813738 -0.330919 -0.497149 0.318419 0.581837 0.571826 -0.393019 -0.240775 0.418709 -0.302512 -0.259487 -0.408179
164 0.474048 -0.039723 -0.548298 0.564656 0.458217 0.378395 -0.084324 0.089658 -0.304319 -0.050684 -0.400098 0.367703 -0.047889 0.229043 1.481825 -0.973131 -0.587629 -0.527400 -0.081614 -0.089495 0.049780 -0.348904 -0.683429 -0.079122 1.098312 0.856628 0.002261 0.031866 0.959750 -0.331697 -0.396741 0.037865
434 -0.449572 -0.219928 -0.531742 -0.177529 -0.269470 0.196648 -0.124800 0.242443 0.121945 0.137480 0.236346 0.829880 -0.120627 0.462342 0.188959 -1.153145 0.234723 -0.357719 -0.025369 -0.522830 -0.598818 -0.230783 0.182787 -0.330727 0.113139 0.301309 -0.523403 -0.090002 0.232266 -0.140049 0.210712 0.037232
389 0.083780 -0.569271 -0.988983 0.327997 -0.631681 0.150793 -0.191571 -0.169391 0.744614 -0.490963 0.209097 0.498453 -0.860734 -0.230619 -0.337026 -0.381762 -0.315970 0.210976 -0.412264 -0.701014 -0.483258 -0.011468 0.061580 0.091264 0.335896 0.622566 -0.445444 0.262225 -0.515192 -0.373290 0.505671 -0.549454
35 -0.460068 -0.560645 -0.436435 -0.291352 -0.497915 0.434400 -0.527236 -0.386199 0.244329 0.276600 0.383695 1.203250 -0.262067 0.093691 0.007559 -0.410248 -0.144242 0.338980 -0.293729 -0.561713 0.083256 0.042966 -0.472251 0.233693 -0.031434 0.857031 -0.264705 -0.505934 -0.374068 -0.333612 -0.102284 -0.019068
229 -0.109179 -0.016540 -0.423088 -0.032828 -0.376918 0.384262 -0.797942 0.146373 0.786324 -0.472491 0.294351 0.702918 -0.948812 0.367317 -0.373243 -0.513727 -0.558223 0.170689 -0.408501 -0.592756 -0.565441 0.362367 -0.331672 -0.167137 0.447084 0.413458 -0.379597 0.072891 -0.188048 -0.259770 -0.020347 -0.435193
357 0.183670 -0.285705 -0.844172 0.677099 0.511150 -0.112986 0.398168 -0.195432 -0.366803 -0.471525 -0.201053 -0.400537 -0.142537 0.546635 0.975412 -1.112208 -0.738373 -0.470559 -0.498713 -0.122829 -0.007160 -0.465127 -0.589673 0.401321 0.906563 1.074698 -0.847752 -0.191687 0.933863 -0.219651 -0.818385 -0.474203
248 -0.150556 0.269482 -0.040613 -0.242903 -0.258483 0.646574 0.189502 0.177556 0.723508 0.032854 0.196609 1.068453 -0.154870 -0.076575 0.012201 -0.988008 -0.331901 0.106564 -0.400872 0.031111 -0.608176 -0.073603 0.174405 -0.356329 0.152013 0.790595 -0.373809 0.181678 0.174682 -0.311245 -0.439742 -0.560581
9 -0.331484 0.281072 -0.201028 0.175149 -0.363113 0.306644 -0.176242 0.167708 0.540305 0.099055 0.537059 0.763946 -0.837889 -0.258905 0.025995 -1.002703 -0.573009 0.041799 -0.409983 -0.574378 -0.817509 0.110098 0.134827 -0.548511 0.394823 0.613917 -0.438251 -0.171303 0.056817 0.022508 -0.265968 -0.143884
603 -0.562068 -0.316668 -0.110740 -0.364581 -1.253982 0.230532 -0.557276 0.287439 0.324347 -0.083993 0.119832 0.269480 -0.193030 0.227348 -0.205891 -0.847780 -0.451404 0.030306 -0.196965 -0.197365 -0.402963 0.413449 -0.551505 -0.073927 0.330689 0.408659 -0.594034 0.170785 0.168127 -0.648330 0.061669 -0.372593
131 -0.294027 0.126869 -0.495944 -0.148749 -0.441372 0.028113 -0.291651 -0.018962 0.346402 -0.005247 0.220809 0.846992 -0.616926 -0.032652 -0.609218 -0.705497 -0.456917 0.483475 -0.289775 -0.519031 -0.571511 0.239599 -0.383910 -0.000937 0.351424 0.925187 -0.212097 0.051141 0.521070 -0.381530 -0.253172 -0.544046
116 -0.351273 -0.466529 0.181495 0.194012 -0.908032 0.445307 0.114650 0.054166 0.184170 0.091358 0.547736 0.906819 -0.311818 0.494357 -0.131929 -0.758897 0.035279 0.231284 -0.419475 -0.437573 -0.491783 0.328675 -0.055103 0.021387 0.060325 1.123473 -0.553665 0.261362 -0.300964 -0.301193 -0.051831 -0.622777
289 -0.329404 0.025295 -0.594330 -0.132754 -0.177625 0.156396 -0.319623 -0.421161 0.366892 -0.172118 0.125530 0.823983 -0.732506 0.071118 -0.462718 -0.778207 -0.307854 0.491342 -0.307409 -0.711712 -0.390488 0.018394 -0.256526 -0.075006 0.237435 0.719362 -0.385789 -0.059128 0.503272 -0.088217 -0.158291 -0.467911
343 0.038241 -0.330176 -0.260113 0.126212 -0.391654 0.017922 0.118124 0.650774 0.211151 -0.092632 0.914724 1.012408 -0.197827 -0.011566 -0.209732 -0.625583 -0.205330 0.229498 -0.075166 -0.254535 -0.893627 0.419535 -0.299426 -0.422862 0.537653 0.662487 -0.806500 0.011536 0.325870 -0.444665 -0.092580 -0.006423
597 -0.537025 -0.439764 -0.360295 -0.497931 -0.304561 0.254650 -0.633464 0.125984 0.415984 0.124884 0.220428 0.577938 -0.634068 0.759573 -0.494540 -0.474461 -0.192589 0.035256 -0.305036 -0.438467 -0.582094 0.179236 -0.417656 0.125157 0.023610 0.849608 -0.298552 -0.038060 0.154602 -0.379132 -0.195218 -0.579566
350 -0.113373 -0.690447 -0.438769 -0.400764 -0.798491 -0.180866 -0.015263 -0.041693 0.251621 0.040383 -0.359147 0.281884 -0.449176 -0.078616 -0.394306 -0.845609 -0.006641 0.064726 -0.448093 -0.941007 -0.636320 -0.193351 -0.269399 -0.026663 0.526138 0.505091 -0.915305 0.401207 -0.070142 -0.192048 0.197841 -0.451498
616 -0.339093 -0.396679 -0.117171 -0.114797 -1.013639 0.710020 -0.091232 0.600195 0.365947 -0.071296 -0.159974 0.888127 -0.054815 0.302408 -0.476683 -0.527910 -0.554645 0.257129 -0.307468 -0.212433 -0.646043 0.240544 -0.167467 -0.026526 0.532869 0.752518 -0.531432 -0.304583 -0.057809 -0.655489 -0.039674 -0.375339
352 -0.326371 -0.231382 -0.148004 -0.367575 -0.207615 0.736433 0.364858 0.824171 0.798360 -0.289428 0.025216 1.084466 -0.496072 0.032997 -0.001675 -0.810896 0.253486 -0.736960 -0.130045 0.092858 -0.622170 -0.014336 0.511171 0.079189 0.778244 0.109546 -0.350347 -0.363161 -0.065521 -0.482459 -0.021319 -0.284223
550 -0.723650 0.103020 -0.068347 0.184271 -0.772165 0.329007 0.088749 0.320838 0.349516 -0.097470 0.143962 1.073550 -0.305329 0.055505 -0.524720 -1.142503 -0.329511 -0.144462 -0.709139 -0.541707 -0.480375 0.483936 -0.278915 -0.468237 0.746006 0.138164 -0.585527 0.069296 0.193626 -0.404625 -0.373125 -0.146308
601 -0.312024 -0.223021 -0.064596 -0.600482 -0.629622 0.290164 -0.466089 -0.089134 0.500338 -0.087634 -0.097847 0.654736 -0.183426 0.009320 -0.202721 -0.632105 -0.350184 0.320329 0.165877 -0.581661 -0.364869 -0.070520 -0.794143 0.258643 0.451539 0.734484 -0.300444 -0.055350 -0.060606 -0.466776 -0.113625 -0.295351
491 0.281760 -0.400319 -0.765721 0.263543 0.496197 -0.096206 0.007713 0.476979 -0.577030 -0.156193 -0.615205 0.003133 0.125787 0.423361 1.120826 -1.302903 -0.603150 -0.226653 -0.425483 0.125436 0.469556 -0.446437 -0.237645 0.416169 0.914482 1.088480 -0.414370 0.140671 0.692387 -0.496688 -0.910237 -0.112125
151 -0.097511 -0.581996 -0.157815 -0.102962 -0.589177 0.278877 -0.343726 -0.023654 0.636308 0.158263 -0.134861 0.441359 -0.788944 0.183086 -0.568026 -0.680863 -0.605803 -0.016032 0.179149 -0.354155 -0.310436 0.047599 -0.613955 0.202076 -0.035117 0.726336 -0.066323 0.413662 -0.037609 -0.560826 -0.063701 -0.917530
253 -0.173859 0.360902 0.300137 0.471084 -0.259921 0.455819 -0.236482 0.498905 0.881240 0.170095 0.131050 0.285202 -0.954730 -0.179812 0.225609 -1.135297 -0.438635 -0.794007 -0.507141 -0.777276 -0.479493 0.472276 0.373669 0.125007 0.780614 0.023004 -0.060418 0.118682 0.630972 -0.618321 -0.007010 0.000227
446 -0.025978 -0.121409 -0.044874 0.301911 -0.960154 -0.141149 -0.039393 -0.028555 0.050117 -0.297504 0.059541 0.488489 -0.503599 -0.165372 -0.307458 -0.967882 0.024739 0.043206 -0.531927 -0.610866 -0.929373 0.090733 -0.061191 -0.135582 0.510715 0.643571 -0.986790 0.141351 -0.395388 -0.382639 0.377852 -0.369720
179 0.410960 -0.188179 -0.752040 0.467364 0.730377 0.159594 -0.300394 -0.057293 -0.672790 -0.063694 -0.140049 -0.080855 -0.088125 0.405172 1.074229 -1.476436 -0.396749 -0.373396 -0.387230 -0.148445 0.186981 -0.691032 -0.059059 0.650782 0.450185 1.033600 -0.882870 -0.182892 0.714496 -0.570785 -0.789399 0.003709
58 -0.557783 -0.949066 -0.446875 -0.401358 -1.182497 0.544722 -0.282417 0.506686 0.228832 0.269811 0.082737 0.672908 -0.257066 -0.078512 -0.060305 -0.775958 -0.072045 -0.030838 0.164381 -0.225930 -0.366738 0.023632 -0.616471 -0.059874 -0.088362 0.554335 -0.712387 -0.022746 -0.172677 -0.319768 0.061037 -0.098323
227 -0.599919 -1.032953 -0.203494 -0.106565 -0.295257 -0.176369 -0.228380 0.719737 0.689802 -0.029036 0.035601 0.531728 -0.619792 0.319119 -0.480803 -0.833735 -0.287726 -0.613037 -0.179274 -0.067909 -0.672797 0.097736 -0.260774 0.224224 0.102445 0.316275 -0.009317 -1.098346 -0.337674 0.175902 -0.465815 -0.666274
526 0.085959 -0.444486 0.365756 -0.563246 -0.682924 0.353178 0.524491 0.157689 0.469559 -0.249245 -0.034299 1.065527 -1.049104 0.297727 -0.336842 -0.939393 -0.002363 -0.741287 -0.221918 0.117653 -0.686040 0.072954 0.091314 0.288405 0.680386 0.882799 -0.407432 -0.061797 -0.217915 -0.443501 0.121557 0.272445
98 -0.199056 -0.542547 -0.875932 -0.369157 0.507527 0.445598 -0.844016 -0.122306 -0.685776 0.166639 -0.187391 0.387651 -0.007222 0.387231 1.369446 -0.765854 0.355210 0.191784 -0.217020 -0.176645 0.087352 -0.097644 -0.274211 0.220627 -0.068677 0.867412 -0.669267 -0.412782 0.126783 -0.917365 0.289041 0.126352
584 -0.490504 -0.000195 -0.369970 0.041326 -0.950259 0.032793 -0.258803 -0.365304 0.275722 -0.521569 0.348575 0.296982 -0.216939 0.648326 -0.482740 -1.198152 0.172014 -0.662726 -0.244816 -0.644375 -0.857370 0.385394 -0.120526 -0.027475 0.415732 0.450177 -0.518906 0.226403 0.015374 -0.975802 -0.045330 0.072500
41 0.070814 -0.531026 -0.681655 0.532236 -0.547604 -0.707860 -0.250415 0.434677 0.251019 0.087865 0.290377 0.639684 -0.147354 0.148197 0.661868 -0.926335 -0.359509 -0.486670 0.112048 -0.129960 -0.905539 -0.880204 0.241654 0.437763 0.291543 0.504610 -0.344367 0.519529 0.221951 -0.178137 -0.267294 -0.077351
563 0.412655 0.034334 0.080781 0.769524 -0.155338 0.614277 -0.154520 0.363762 1.204904 -0.209542 0.413626 0.036872 -0.902308 -0.356492 0.145924 -0.889003 -0.028886 -1.252833 -0.060432 -0.969880 -0.241605 0.201890 0.183008 0.217749 0.792133 0.219522 -0.149391 0.594508 0.384430 -0.966764 -0.128600 -0.243660
432 -0.675896 -0.620147 -0.707107 0.430889 -0.620574 0.676488 -0.216143 0.233936 0.804396 -0.122983 0.422121 -0.207672 -0.758581 -0.317782 -0.141515 -0.397148 0.009911 0.371486 -0.248818 -0.008000 -0.858240 -0.269275 0.162224 -0.015865 0.223869 0.984119 0.110381 0.137077 -0.513009 -0.923279 0.090966 -0.451025
195 -0.238600 -0.836126 -0.381029 -0.355789 -0.742087 0.086987 -0.225541 0.031520 0.592975 -0.237989 -0.154685 0.887017 -0.550953 0.526410 -0.451686 -0.568751 -0.396676 0.015187 -0.122244 -0.503299 -0.450849 0.038989 -0.366564 0.399502 0.084701 0.690864 -0.501710 -0.282542 -0.263495 -0.105753 0.209848 -0.337074
593 -0.004168 0.077478 0.382090 0.116724 -0.476390 0.530629 -0.219345 0.445143 0.579622 0.079189 0.636665 0.585449 -0.850344 0.963540 -0.157425 -0.810170 -0.366159 0.018219 -0.525148 -0.545271 -0.973558 0.489191 0.037149 -0.125334 0.229106 1.068534 -0.671486 0.036061 0.068778 -0.295107 0.076262 -0.074365
254 -0.123686 -0.013281 0.064972 0.002728 -0.195364 -0.303487 -0.211530 0.348706 0.511998 0.381034 0.615984 0.802552 -0.413196 -0.400664 -0.020351 -0.677677 -0.560687 0.112552 -0.017515 -0.264149 -1.341599 0.510255 0.190517 0.281901 0.488930 0.555461 -0.979225 0.097430 -0.031847 -0.444194 -0.367790 0.019600
576 -0.262177 -0.011999 -0.237117 -0.064678 -0.791067 0.289510 -0.879019 -0.295306 0.900476 -0.291367 -0.018103 0.339408 -0.391724 0.676616 -0.248646 -0.758823 -0.266513 0.200573 -0.163088 -0.412964 -1.231120 0.288693 -0.496120 0.420582 0.528946 0.237106 -0.871756 0.037870 -0.099937 -0.529455 -0.279334 0.009043
181 0.080614 -0.020894 -0.280612 -0.539404 -0.306237 0.012253 0.507578 0.551393 0.784204 -0.373798 0.146365 1.047587 -0.434924 0.279271 0.011993 -0.937765 -0.497574 -0.399141 -0.453714 0.352820 -0.442919 -0.494881 0.460513 0.217695 0.498540 0.758230 -0.320375 -0.134766 -0.093107 -0.616380 -0.011828 0.125136
216 0.138750 -0.694955 -0.904778 -0.347269 0.737494 0.526484 -0.708860 -0.442092 -0.462297 0.068394 -0.551892 0.794538 -0.340640 0.116057 1.453452 -0.448681 0.048799 0.165985 -0.149723 -0.257355 0.210891 0.029853 -0.428996 0.287806 0.184993 0.803548 -0.318256 -0.358348 -0.180606 -0.985696 0.154519 0.180878
372 -0.677964 -0.468482 -0.330021 0.041543 -0.903585 0.212982 -0.060751 0.308255 0.072780 -0.057546 0.667361 0.992057 -0.107391 0.265432 -0.267770 -0.379628 -0.443060 0.046184 -0.914181 -0.254608 -0.811396 0.476545 -0.061173 -0.265822 0.633803 0.485982 -0.794776 0.127946 0.093588 -0.418371 -0.172718 -0.878571
235 -0.622907 -0.118513 -0.066897 -0.365615 -0.129513 0.044719 0.652367 0.339544 0.709246 -0.312013 -0.596392 1.328648 -0.997523 0.117884 -0.153167 -0.825343 -0.308178 -0.554375 -0.597743 0.138353 -0.532566 -0.016293 0.594826 0.296424 0.871664 0.455862 -0.033391 0.193366 -0.055807 -0.871058 0.063284 -0.046977
465 -0.587081 -0.005343 -0.124202 -0.151316 -0.235445 -0.415495 -0.286311 0.633758 0.248511 0.113888 0.887799 0.784858 -0.321212 -0.201253 0.166345 -0.699471 -0.657841 -0.049775 -0.096142 -0.218841 -1.035526 -0.000860 0.158390 0.079190 0.539040 0.796645 -0.566010 0.157352 0.382996 -0.329107 -0.013564 -0.147732
23 -0.204297 -0.681946 -0.534600 -0.069652 -0.519822 0.134102 -0.264847 0.702085 0.155221 0.121744 0.140387 0.710351 -0.892503 0.136821 -0.244501 -1.117369 -0.360223 -0.083489 0.301520 -0.389294 -0.845931 0.232080 -0.440648 -0.102842 -0.266062 0.417720 -0.669459 -0.354003 0.322932 0.523271 0.036766 -0.134993
128 -0.347141 -0.020678 -0.456478 0.055132 -0.431379 -0.266407 -0.425664 -0.056915 0.188283 0.297322 0.136731 0.965391 -0.553011 -0.442582 -0.289815 -0.817868 -0.147574 0.438558 0.142462 -0.301191 -1.504474 0.264723 -0.191959 0.248707 0.745385 0.497210 -0.697552 -0.250206 -0.183655 -0.377044 -0.218254 -0.197620
176 0.361527 -0.721824 -0.919262 0.221876 0.974600 0.289661 -0.484299 -0.370107 -0.468379 -0.175929 -0.702125 0.930267 -0.300598 0.197624 1.730836 -0.479003 -0.390532 0.098347 -0.075568 -0.195411 0.147739 -0.019736 -0.480385 0.055886 0.799955 0.814182 0.070093 -0.325227 -0.003901 -0.702369 0.020011 0.056764
618 -0.191546 -0.746269 -0.647264 -0.667928 0.214221 0.387598 -0.530486 -0.490819 -0.230764 0.062747 -0.137095 1.075575 -0.311461 0.273347 0.818275 -0.309491 0.036847 0.362249 -0.284346 -0.262153 0.385132 -0.131921 -0.223312 0.450300 -0.299764 1.171953 -0.287138 -0.292149 -0.332809 -0.861573 0.132767 0.100264
245 0.415141 -0.071002 0.109761 -0.174257 -0.592506 0.353839 0.072605 0.001240 1.062238 0.432402 0.178533 0.294494 -0.262298 0.646537 -0.114248 -0.687300 -0.737744 0.406621 -1.024034 -0.409582 -1.081542 -0.073911 -0.251254 -0.416411 0.219563 0.798440 -0.636538 -0.256739 -0.118452 -0.665935 -0.276750 -0.413059
558 0.146859 -0.438582 0.348243 -0.005131 -1.066453 0.444034 0.239968 0.456566 0.091755 0.024369 0.410963 0.643140 -0.310938 0.153964 -0.224059 -0.508314 -0.120938 0.138329 -0.454667 -0.126772 -0.997818 0.680162 -0.112608 0.108751 0.456013 1.119849 -0.781316 0.119639 -0.241717 -0.544106 0.228202 -0.323158
50 -0.546987 -0.426769 -0.763813 0.003602 0.247251 -0.548534 0.561468 0.161693 0.802221 -0.517310 0.178340 0.596819 -1.030762 -0.032138 -0.650605 -0.551933 -0.391176 0.657604 -0.583073 -0.716172 -0.330709 0.655901 -0.311247 -0.304535 0.604265 0.603608 -0.446094 0.352954 0.069424 -0.235721 -0.209324 -0.102753
570 -0.208014 -0.024551 0.052483 0.152185 -0.201764 0.071149 -0.141089 0.039703 0.688242 0.391461 0.917123 0.877076 -0.448815 -0.415703 0.043233 -0.741932 -0.528866 0.303111 -0.024777 -0.224718 -1.035429 0.416827 0.066828 0.039090 0.657779 0.678118 -0.841539 -0.070599 -0.071852 -0.444660 -0.054987 0.248922
136 0.003052 -0.455726 -0.558282 0.226047 -0.592686 1.086795 -0.283315 -0.299990 0.735719 0.008256 0.320205 0.786736 -0.492746 0.215531 -0.468862 -0.152546 -0.177901 0.302232 -0.122203 -0.373888 -1.228077 0.702939 0.058143 0.274419 0.727581 0.973119 -0.915117 0.290511 -0.448632 -0.604219 -0.035685 -0.009236
238 -0.486508 0.206541 -0.421126 0.358970 -0.882716 0.271570 -0.227482 0.510729 0.225291 0.048424 0.192351 0.799083 0.218071 0.080614 -0.541230 -0.630679 -0.385160 0.129029 -0.267213 -0.265647 -0.273205 -0.072184 -0.453381 0.125200 0.732280 0.617890 -0.143978 -0.007710 0.389483 -0.737020 -0.608285 -1.072194
449 -0.262984 -0.117937 -0.729961 0.915476 -0.463258 -0.028961 -0.325478 0.478691 0.271054 -0.307844 0.568110 0.354857 0.260350 0.113948 -0.053533 -0.388785 -0.181905 -0.386193 0.104834 -0.117248 -0.337194 -0.617758 -0.235393 0.480790 0.950940 0.559558 -0.047688 -0.202423 0.083051 -0.729153 -0.885586 -0.936219
224 -0.030921 -0.095484 0.100686 -0.765348 -0.061226 0.648322 0.581074 0.264671 0.605177 -0.203605 -0.698560 1.267184 -0.863773 -0.166179 -0.193146 -0.966281 -0.057043 -0.434631 -0.342195 0.419719 -0.580496 0.043171 0.639308 0.208939 0.475808 0.777350 -0.345464 0.135199 -0.273291 -0.703357 -0.254219 -0.152155
323 -0.424061 0.160794 0.096914 0.126774 -0.344646 0.765712 0.052559 0.636332 0.369572 0.165029 0.136943 0.620265 -0.485295 0.513857 0.119398 -1.212730 -0.301658 -0.289181 -0.198433 -0.797301 -0.618001 0.417161 0.314961 -0.367420 0.644662 0.655586 -0.368123 0.322799 0.475480 0.104824 -0.005698 0.282062
63 0.342317 -0.157807 -0.672027 0.383731 0.561114 -0.147183 0.342864 -0.383587 0.183950 -0.309127 -0.105903 -0.182301 -0.178803 0.730241 1.001863 -1.187796 -0.658602 -0.478125 -0.361582 0.122863 -0.366159 -0.442216 -1.046767 0.425653 0.981308 0.949337 -0.264472 -0.431307 0.625826 0.130086 -0.873842 -0.586363
292 0.169415 -0.614317 -0.577851 0.570184 0.750242 -0.042895 -0.063119 0.195254 -1.042328 -0.376899 -0.421443 -0.116652 -0.048507 0.429927 0.981530 -1.550534 -1.002666 -0.051781 -0.487709 -0.260406 0.144523 -0.475051 -0.094709 0.287985 0.821098 0.905795 -1.024648 -0.208594 0.818325 -0.539626 -0.974756 0.136563
43 -0.713551 0.097429 0.019024 0.051852 -0.417081 0.085868 -0.823918 0.506681 1.171250 -0.102852 0.402923 0.088522 -0.881220 -0.389987 0.207582 -0.973668 -0.734383 0.004666 -0.648970 -0.653013 -0.861015 0.425993 0.213873 -0.157647 0.423081 0.258480 -0.157134 -0.215016 -0.104186 -0.461847 0.318258 -0.120031
545 0.298128 -0.623663 -1.069116 -0.042975 1.151213 0.647575 -0.823387 -0.435124 -0.050652 -0.226535 -1.146978 0.355741 -0.992961 -0.394892 1.178823 -0.426861 -0.179778 0.055472 -0.379384 -0.040228 0.272613 0.829460 -0.889656 0.183307 0.630334 0.318288 -0.847649 -0.525781 -0.250409 -1.670301 -0.118050 -0.320581
404 -0.466375 -0.663247 -0.614423 0.314941 -0.769189 -0.182655 -0.222114 -0.200552 0.568722 0.171765 -0.419453 0.090892 -0.663835 -0.484306 -0.220615 -0.791494 -0.044071 0.511004 -0.386768 -0.564436 -1.373620 -0.219840 0.006289 0.055149 0.801430 0.449083 -0.398194 0.177336 -0.378605 -0.256414 -0.136711 -0.384543
143 0.580480 -0.845941 -0.148996 0.452147 -0.412391 0.157427 -0.109334 0.446078 1.121288 0.332722 -0.109534 0.374589 -0.653556 -0.146477 -0.154579 -0.702514 -0.716967 -0.355004 0.154783 -0.811880 -0.237174 -0.068100 -0.371150 0.181845 -0.337089 0.575023 -0.318188 0.998630 0.339712 -0.694653 -0.328806 -0.709920
555 -0.831103 -0.788580 -0.472527 -0.042495 -0.336233 -0.030543 0.205141 1.299029 0.144480 -0.551172 0.467669 0.027576 -0.389325 -0.042642 0.507053 -0.691868 -0.336798 0.652526 -0.099483 0.202594 -0.461523 1.224685 -0.883965 -0.720709 0.239345 0.790453 -1.071458 0.417203 0.533361 -0.792727 0.095782 -0.015947
142 -0.129942 -0.491524 -0.957474 0.156171 0.128432 0.061811 -0.043313 0.455558 -0.425552 -0.047621 -0.075698 -0.073573 0.228789 0.532166 1.779347 -1.037162 0.098271 -0.284488 -0.147055 0.259528 0.283107 -0.501716 -0.454905 0.203391 0.501217 1.308517 -0.367051 -0.014020 0.813677 -0.405160 -0.259337 -0.138364
62 0.032607 -0.215391 -0.668749 0.661442 -0.573354 -0.188390 -0.254368 0.383661 0.255253 -0.198739 0.464097 0.652289 0.113470 0.081457 0.272039 -0.724332 -0.335575 -0.340368 -0.193802 0.082950 -0.439228 -0.961207 0.029903 0.471999 0.568144 0.848980 -0.338121 0.207021 -0.201413 -0.183918 -0.819509 -0.359947
397 0.575886 -0.858555 -0.940440 0.902860 -0.315908 -0.363620 -0.105089 0.362146 1.026803 -0.021315 0.136706 0.216849 -0.558231 -0.019443 0.061201 -0.803472 -0.829330 -0.488353 0.105597 -0.144966 -0.657239 -0.367368 0.106777 0.319152 -0.142016 0.615645 -0.205618 0.951809 0.079802 -0.581936 -0.113692 -0.168102
596 -0.076470 -0.495370 -0.976713 0.485951 0.380257 -0.008302 0.030615 0.006932 -0.725643 -0.233088 -0.280308 -0.151731 -0.013335 0.495214 1.518092 -1.032268 -0.400882 -0.322327 -0.379247 0.091800 0.322164 -0.666000 -0.271209 0.398175 0.673338 1.321127 -0.922949 -0.250478 1.020927 -0.569717 -0.612311 -0.311938
107 -0.199414 0.334721 0.237224 0.172887 -0.439260 0.013179 0.185458 -0.001188 1.052615 0.264037 0.105342 0.582171 -0.239687 -0.210854 -0.028973 -1.311548 -0.468342 0.043112 -0.934330 -0.597767 -0.319167 0.132263 -0.166127 -0.522453 0.332893 0.491953 -0.450427 -0.498627 -0.007636 0.019212 -0.625340 -0.148790
374 0.253720 -0.636003 -1.030715 -0.000769 1.094951 0.597059 -0.818075 -0.490832 -0.102476 -0.222993 -1.107855 0.493736 -0.977419 -0.417891 1.076308 -0.444206 -0.176642 0.135421 -0.437004 -0.085612 0.318700 0.872228 -0.825970 0.340046 0.557650 0.398301 -0.840484 -0.598750 -0.309942 -1.648291 -0.187283 -0.299395
424 0.714253 -0.495680 -1.073790 0.275507 0.538836 -0.309646 0.064406 0.089649 -0.239516 -0.056673 -0.841063 0.215296 -0.046617 0.444648 0.802737 -1.172220 -0.809719 -0.004922 -0.259864 -0.213831 0.383428 -0.446427 -0.606092 0.630491 0.964363 1.074375 0.244518 0.093608 0.402439 -0.294686 -1.113809 -0.644060
605 0.308779 -0.313187 -0.749550 0.033348 0.908174 0.491522 -0.715664 -0.321975 -0.753395 0.154350 0.036855 -0.007118 -0.128041 0.345350 1.129413 -1.411566 0.148037 -0.151457 -0.307031 -0.322690 0.364863 -0.376858 -0.118616 0.731902 -0.206905 0.996231 -1.021099 -0.475155 0.282967 -0.955149 -0.328681 0.173876
536 -0.188636 -0.659859 -0.011790 -0.116735 -0.675539 0.719438 0.258114 0.018907 0.309347 0.064711 0.630937 1.083738 -0.491473 0.149712 -0.302364 -0.705857 -0.033380 0.014331 -0.074507 -0.045532 -0.536702 0.470336 -0.212929 0.180760 0.378285 1.279636 -0.687116 0.072064 -0.364413 -0.058414 -0.004346 0.348494
99 -0.230839 -0.611158 -0.964956 -0.231555 0.057443 0.330652 -0.379850 0.527215 -0.579273 0.106900 -0.107373 -0.132263 0.179835 0.413405 1.667383 -0.994057 0.379794 -0.194937 -0.163156 0.272601 0.573628 -0.096830 -0.590615 0.355070 0.053851 1.165794 -0.596402 -0.098205 0.647301 -0.965470 0.021679 0.025626
79 0.258537 -0.507881 -0.732011 0.805813 0.588410 -0.472309 0.345288 0.511611 -0.562292 -0.537045 -0.141518 0.043222 0.140484 0.372592 0.967074 -1.339388 -0.914998 -0.015633 -0.242296 0.008813 -0.038044 -0.182062 -0.789216 -0.144084 0.995086 1.094674 -0.381349 0.181357 0.778347 -0.401410 -1.060446 0.046174
347 0.219635 -0.178103 -0.685416 0.617716 0.871636 0.098828 0.006443 -0.182597 -0.520299 -0.133038 -0.192393 0.089813 -0.486211 0.092257 1.305025 -1.128421 -0.424449 -0.258887 -0.299061 -0.156675 0.048729 -0.976255 0.121567 0.344403 0.453272 1.102207 -0.968480 -0.310454 1.067428 -0.504811 -0.958944 -0.310703
135 -0.718788 -0.735902 -0.750487 0.413363 -0.505660 -0.598117 -0.194298 0.029729 0.349799 -0.148261 -0.434110 0.367891 -0.664315 -0.521490 -0.347946 -0.935867 0.190849 0.310156 -0.621697 -0.467281 -1.252398 -0.112639 0.187735 0.020234 0.599376 0.461191 -0.506281 -0.258613 -0.701460 -0.152415 -0.101337 -0.505724
508 0.154399 -0.420648 -0.676304 0.568564 0.347464 0.054839 0.305981 0.363013 -0.437681 -0.329680 -0.512759 -0.144468 0.046541 0.399330 1.399179 -0.737847 -0.777229 -0.667509 -0.545577 0.358814 0.446631 -0.416479 -0.042607 0.541353 1.281056 1.204290 -0.627227 0.139664 0.718249 -0.317463 -0.607271 -0.329279
383 -0.860687 -0.399865 0.049927 0.129328 -0.287687 0.055065 -0.152499 0.181391 1.074947 0.264723 0.350453 0.805968 0.211761 -0.105090 -0.343225 -0.880076 -0.519609 0.048593 -0.709478 -0.490447 0.099947 0.332176 -0.402185 -0.162199 0.184740 0.864251 -0.247478 -0.960956 -0.657198 0.031937 -0.684935 -0.055268
157 -0.214709 -0.171017 -0.401673 -0.305218 -0.542073 0.210162 -0.120107 -0.276685 -0.117570 -0.177787 -0.157609 0.266824 -0.769584 0.328508 -0.356306 -1.062626 -0.997958 0.286704 -0.077153 -0.151692 -0.546165 -0.011112 -0.789754 0.254607 0.350832 0.718673 -0.550847 -0.256225 0.669397 0.599803 -0.055313 -0.349788
220 0.340641 -0.925843 -0.963146 0.416731 1.445653 0.164897 -0.288044 -0.541578 -0.304301 -0.396847 -0.961619 0.198099 -0.532232 0.015634 1.439722 -0.359301 -0.602311 0.074822 -0.095589 0.249309 0.046347 0.265485 -0.949099 0.041313 1.087662 0.664383 -0.420751 -0.493486 0.077394 -0.783791 -0.379669 -0.366366
146 -0.253785 0.519994 0.223199 0.524992 -0.573796 -0.378012 -0.217130 0.752128 0.720269 0.109196 -0.034434 0.983240 -0.794608 0.016298 0.757705 -1.144870 -0.715490 -0.750292 -0.627706 -0.391611 -0.300081 -0.340862 0.232634 0.359046 0.501253 0.025379 0.027241 0.167719 0.833860 -0.594962 0.088860 -0.221114
282 -0.077630 -0.459553 -0.876631 1.120616 -0.672761 -0.262433 -0.198743 0.612956 0.315787 -0.372726 0.093671 0.421283 -0.221977 0.075763 0.332607 -0.805277 -0.344349 -0.560367 -0.292684 0.209667 -0.402755 -0.917977 0.442896 0.576257 0.329690 0.660004 0.074292 0.255655 -0.124004 -0.767594 -0.759353 -0.500240
577 -0.470587 -0.385803 0.028654 -0.455901 -0.108079 0.080542 -0.448480 0.651602 1.026819 -0.187828 0.515638 -0.201057 -0.671220 0.063757 -0.127417 -0.667216 -0.425744 -0.180040 -0.402210 -0.640377 -0.619001 0.082329 -0.281917 -0.025015 0.794566 0.491590 0.136488 -0.470322 -0.200434 -0.196402 0.218899 -0.629612
311 0.361805 -0.738318 -1.230912 0.061111 1.338278 0.708221 -1.027927 -0.639128 0.191753 -0.291796 -0.892419 0.531218 -1.127817 -0.254404 1.042532 -0.376112 -0.089018 0.267021 -0.269599 0.081468 0.392323 0.887072 -0.814432 0.250010 0.763146 0.623301 -0.752698 -0.586658 -0.300845 -1.458555 -0.060149 -0.347195
130 -0.885318 -0.543514 -0.427249 0.068855 -0.140437 1.012533 -0.192002 0.048318 0.810497 0.070452 0.000965 0.195413 -0.438664 0.307110 -0.697118 -0.236558 -0.404635 0.302411 0.235270 -0.379005 -0.875250 0.431670 -0.069748 0.142503 0.277127 1.039349 -0.387522 0.122415 0.096495 -0.584401 -0.082533 -0.512940
202 -0.437471 -0.390677 -0.510196 0.175809 -0.017058 -0.343169 0.452934 0.635697 0.182777 -0.714436 0.647410 0.262002 -0.313289 0.138868 -0.073278 -0.550770 -0.579843 0.556245 -0.124330 -0.164406 -0.520474 0.712226 -0.294688 -0.569818 0.250644 0.954291 -0.708924 0.412140 0.433593 -0.543223 -0.081653 0.211465
448 0.062926 -0.623247 -0.599406 -0.145310 0.442072 0.017634 0.069269 -0.671972 -0.120525 -0.169167 -0.373104 -0.419353 -0.271055 0.794645 0.606270 -0.816173 -0.816717 -0.083352 -0.234457 -0.126736 -0.373152 -0.445403 -1.076178 0.422650 1.090074 1.064201 -0.413720 -0.638824 0.822443 0.239921 -0.561972 -0.749687
360 -0.428340 -0.487459 -0.737571 0.965268 -0.596954 0.039190 -0.551657 0.088853 0.947833 -0.096174 -0.128196 -0.008380 -0.992581 -0.474570 0.016959 -0.709039 -0.688172 0.241711 -0.660795 -0.412929 -1.079004 0.272235 0.466725 0.055801 0.189529 0.329280 -0.108403 0.176381 -0.544259 -0.462752 0.336852 -0.083414
351 -0.567574 0.190042 -0.362693 -0.099521 -0.263750 0.177850 -0.133085 0.005461 0.472334 0.082663 0.537283 0.674724 -0.629339 0.003815 -0.444250 -0.922648 -0.703476 0.474568 -0.403257 -0.623333 -0.494052 0.465825 0.079374 -0.171699 -0.099758 1.104749 -0.269090 0.134753 0.684962 -0.408858 -0.138810 -0.395535
441 0.457287 -0.724172 -1.174231 0.346976 1.420683 0.370639 -0.637752 -0.504862 -0.049367 -0.446514 -1.153240 0.334929 -0.909692 -0.271907 1.266263 -0.346740 -0.487728 0.126689 -0.250743 0.169678 0.241654 0.636857 -0.954791 0.077770 1.080887 0.476364 -0.625605 -0.483196 -0.015430 -1.245444 -0.368906 -0.359285
419 -0.293181 -0.062845 -0.268167 -0.139672 -0.262836 -0.143164 -0.379809 0.415867 0.482445 0.335512 0.711232 0.861546 -0.311646 -0.333872 0.057914 -0.572573 -0.387037 0.226827 0.099048 -0.440290 -1.426072 0.562203 0.047860 0.205263 0.751585 0.468186 -0.879798 0.172921 0.211177 -0.478460 -0.067287 -0.087396
193 -0.123431 -0.045022 -0.618514 1.156536 -0.494199 -0.566138 -0.398360 0.575460 0.107810 0.040554 0.297547 0.521352 0.015214 0.164711 0.594792 -0.969405 -0.618345 -0.646213 -0.283272 -0.185328 -0.428065 -0.867665 0.130553 0.611909 0.442579 0.280300 -0.117109 -0.200223 0.529675 -0.363812 -0.606608 -0.583168
242 -0.613135 -0.015352 -0.377142 -0.108064 -0.756911 1.014717 -0.170368 0.194032 0.417670 0.355641 -0.166577 0.787385 0.330532 0.078937 0.415202 -1.165301 -0.411380 -0.260245 -0.040807 -0.724742 -0.340260 0.092655 0.262250 -0.435511 0.268743 0.590555 -0.128266 0.451034 0.442332 -0.112016 -0.096419 0.025104
269 0.116770 0.291101 0.011853 0.254550 0.135941 0.053863 -0.271735 0.353745 0.500510 -0.136555 0.734401 0.655277 -0.204218 -0.102144 0.216593 -0.843630 -0.182404 -0.143846 -0.419172 -0.008064 -0.190218 -0.929328 -0.213703 -0.059805 0.589183 1.066321 -0.687901 0.325717 -0.063171 0.137869 -0.907995 -0.306710
101 0.156188 -0.633778 -1.145383 -0.319144 0.998916 0.625698 -0.933695 -0.475790 -0.253927 -0.096998 -0.723773 0.555911 -0.581399 -0.117746 1.359266 -0.507937 0.068825 0.250585 -0.258098 -0.110166 0.366151 0.353120 -0.710600 0.311554 0.251485 0.686347 -0.707708 -0.517832 -0.201916 -1.390262 0.002557 -0.011880
439 -0.210655 -0.834559 -0.157701 -0.382150 -0.453197 0.513684 -0.352197 -0.209364 0.637276 0.130934 0.043447 0.653014 -0.273185 0.212156 -0.236560 -0.167464 -0.284538 0.255950 -0.358910 -1.021300 -0.279585 -0.136728 -0.069028 0.311392 0.459917 0.945638 -0.360650 0.248073 -0.182675 -0.292567 -0.372749 -0.015898
15 -0.817760 -0.004991 -0.135842 0.030778 -0.430007 0.279973 -0.276495 0.178022 0.793320 -0.219969 0.693725 0.221024 -0.965840 -0.468855 -0.001677 -0.795246 -0.739565 0.364380 -0.477304 -0.336419 -0.492760 -0.039990 0.261929 -0.317087 0.426266 1.049637 -0.032342 0.136670 -0.234421 -0.480759 0.159105 0.022021
169 0.312239 -0.357090 -0.764633 0.261558 -0.543478 -0.096718 0.176239 0.140512 0.515020 -0.161057 0.044100 0.620978 -0.082209 0.406659 0.124701 -0.673486 -0.633815 -0.511874 -0.191388 0.521807 -0.271714 -1.057816 0.233575 0.399970 0.193916 0.884785 -0.178853 0.525678 0.027534 -0.664467 -0.647517 -0.068156
275 -0.457522 -0.403799 -0.112919 0.315371 -0.812850 0.432378 -0.276312 0.019459 0.262338 0.133305 0.732135 0.518512 -0.459274 1.090249 -0.107563 -1.064698 0.212237 -0.348185 -0.395480 -0.564917 -0.892349 0.342888 -0.033455 -0.044063 -0.043094 0.823669 -0.544121 0.045618 -0.190041 -0.324785 -0.381402 0.141458
458 -0.461287 -0.793056 -1.205464 0.912602 -0.648322 0.175043 -0.222079 -0.237861 0.564175 -0.118102 -0.134798 0.287757 -0.720845 -0.370923 -0.222852 -0.702699 -0.111083 0.204165 -0.417973 -0.304000 -0.860420 -0.136251 0.337500 0.061760 0.144760 0.656685 -0.171938 0.207864 -0.601489 -0.337339 0.089974 -0.400453
521 -0.558078 -0.760814 0.309031 0.735104 -0.433210 0.249670 -0.069263 -0.257208 -0.022629 -0.012458 0.414990 1.190266 -0.226661 0.482226 0.629522 -0.539881 0.231189 0.432355 -0.604574 -0.838975 0.063334 0.988541 0.168309 0.723904 -0.495626 1.415966 -0.497054 -0.580413 -0.857263 -0.449234 -0.065356 -0.790059
459 -0.512124 -0.582621 -0.560432 0.178986 -0.047917 -0.285949 0.493089 0.734962 0.045197 -0.732907 0.460746 -0.058274 -0.168707 0.125196 -0.083402 -0.637591 -0.473347 0.609269 -0.159201 -0.255380 -0.558149 0.541745 -0.448359 -0.575271 0.429535 0.933821 -1.011796 0.373830 0.419912 -0.315426 -0.110495 0.208822
148 -0.015006 -0.117821 0.141308 0.482088 -0.475344 0.400199 -0.077569 0.319315 0.543098 -0.022809 0.351240 0.336360 -0.896429 -0.511659 0.218903 -0.874527 -0.386921 -0.952024 -0.110158 -0.944831 -0.244848 0.825576 0.491444 0.380169 0.714581 0.068835 0.130794 0.165198 0.286212 -0.416298 -0.327906 0.184837
469 -0.124551 0.527804 0.139434 0.194383 -0.220519 0.582077 -0.499621 0.288725 0.899328 -0.234399 0.598013 0.221800 -0.844850 -0.156857 0.153626 -0.890714 -0.195895 -0.578298 -0.418326 -0.901522 -0.281633 0.265945 0.110619 -0.048327 0.730070 0.265491 -0.221777 0.265867 0.955410 -0.812659 0.103429 -0.240355
345 0.251671 -0.688169 -0.322548 -0.551337 -0.587517 -0.157982 -0.159632 -0.242918 0.924791 0.162344 0.161304 0.360542 -0.640534 0.140799 -0.512384 -0.607070 -1.192804 -0.166288 -0.263624 -0.836941 -0.342999 0.425795 -0.159270 0.326570 0.044757 0.718663 0.028840 0.011233 -0.447887 -0.720924 0.002950 -0.930815
507 0.407437 -0.333214 -0.747883 0.807313 0.456609 -0.394078 0.151832 0.363199 -0.553850 -0.438993 -0.194954 0.384716 0.103071 0.551734 1.094293 -1.249080 -0.960485 -0.062505 -0.308397 -0.282886 -0.016103 -0.435984 -0.683609 0.010697 0.911667 0.909723 -0.206995 0.075370 0.663293 -0.399587 -0.938461 -0.024190
329 0.404143 -0.666698 -1.302681 -0.011069 1.339632 0.714985 -1.053450 -0.449548 -0.047744 -0.186701 -0.986862 0.332262 -0.965428 -0.407849 1.306263 -0.512907 -0.100193 0.139916 -0.262029 0.013730 0.368009 0.813248 -0.866950 0.247316 0.634635 0.496007 -0.997436 -0.459092 -0.088911 -1.677649 -0.101399 -0.208516
68 -0.720520 0.067175 -0.076723 -0.525780 -0.786103 0.137667 -0.263479 0.314448 0.732578 0.065521 0.103433 0.657866 0.028013 -0.098757 0.262292 -1.062829 -0.687941 0.150076 -0.244811 -0.557160 -0.352104 0.048620 0.033837 0.044326 0.482610 0.806906 -0.267386 0.355692 -0.118529 -0.324474 0.291562 0.019616
375 -0.493936 -1.041413 -0.418135 0.280917 -0.947146 0.176837 -0.299424 -0.248456 0.623829 0.173580 -0.329118 0.020855 -0.835305 -0.405535 -0.241644 -0.712083 -0.567648 0.080785 -0.074096 -0.168403 -0.800349 -0.118392 0.032298 -0.035237 0.248465 0.729692 0.020851 0.475694 -0.519259 -0.485911 -0.262155 -0.523332
102 -0.539091 -0.383909 -0.080201 -0.393796 -0.230437 -0.223022 -0.536561 0.409168 1.059501 -0.106076 0.624754 0.177198 -0.664339 0.002436 -0.182438 -0.735586 -0.696407 -0.024261 -0.761292 -0.649581 -0.627422 0.161755 -0.246310 -0.138870 0.619913 0.459702 0.055782 -0.492447 -0.291492 -0.201397 -0.025298 -0.747871
436 -0.036832 -0.676605 -0.912901 0.431817 0.030817 -0.046898 -0.092582 0.352172 1.307968 -0.681651 0.701063 0.634197 -0.757630 0.454840 -0.518669 -0.267699 -0.585757 -0.501409 -0.367163 -0.644465 -0.459020 0.462197 -0.231813 0.160694 0.528742 0.170575 -0.107062 -0.192931 -0.502477 -0.079389 -0.401179 -0.659160
488 0.024677 -0.159975 -0.859063 0.657176 0.386252 0.015715 -0.002700 -0.060475 -0.193093 -0.299677 -0.204873 0.337775 -0.330125 0.275682 1.599661 -0.831932 -0.314760 -0.450970 -0.182962 -0.028243 0.009878 -1.113297 -0.093105 0.090622 0.665224 0.961639 -0.610672 -0.118235 1.024463 -0.485521 -0.850649 -0.481282
342 -0.595057 -0.177243 0.010103 -0.162918 -0.493079 0.290216 0.014665 0.337468 0.165847 0.128245 1.010705 0.947766 -0.141796 0.460190 -0.345207 -0.843817 -0.426122 0.226586 -0.484858 -0.471299 -0.648661 0.504252 -0.016416 -0.161582 0.318185 1.190005 -0.743240 0.026566 0.429143 -0.213729 -0.252246 -0.722679
546 0.383411 -0.392536 -0.770955 0.703701 0.418141 -0.307120 0.066460 0.469696 -0.410235 -0.413776 -0.256931 0.342255 -0.009671 0.300128 1.031041 -1.254794 -0.810121 -0.225866 -0.151678 -0.019385 0.037268 -0.515144 -0.595685 -0.044816 0.892236 0.840332 -0.108159 0.076984 0.636060 -0.412576 -0.977993 0.021806
543 0.323134 -0.246497 -0.741145 0.597626 0.743426 0.017324 0.006960 -0.195093 -0.223224 -0.341807 -0.200811 0.136461 -0.379751 0.167408 1.157063 -0.782823 -0.509133 -0.293137 -0.117881 0.135731 -0.196313 -0.825050 -0.299086 0.250105 0.751414 0.799547 -0.471418 -0.203835 0.728281 -0.413047 -0.791785 -0.443943
8 -0.185871 -0.287366 -0.747158 -0.253440 0.350918 0.701665 -0.763303 -0.084937 -0.455110 0.378867 0.043686 0.512912 0.008360 0.677928 1.180594 -1.093465 0.529176 -0.023476 0.017935 -0.428754 -0.518509 -0.039942 0.038906 -0.193820 0.145753 0.821419 -0.508016 -0.102362 0.247034 -0.343188 0.623054 0.260398
225 0.032579 0.409801 -0.002093 0.502018 -0.528667 0.447427 -0.260683 -0.095317 0.508004 -0.316786 0.273950 0.118977 -0.717291 0.214606 -0.147593 -1.247259 0.186713 -1.070114 -0.335865 -0.892929 -0.435903 0.435676 0.216302 0.198195 0.842689 0.086959 -0.190405 0.291952 0.625991 -1.040036 0.091137 0.001004
478 0.295397 -1.430653 -1.021045 0.577838 1.396550 0.123912 -0.303405 -0.394764 -0.290497 -0.175823 -0.608818 0.451707 -0.379356 0.010948 1.914362 -0.430850 -0.598983 0.116011 0.025038 0.215035 -0.180163 0.214327 -0.549736 0.250011 0.957893 1.130176 -0.043150 -0.285099 -0.079492 -0.670069 0.020048 -0.234578
599 0.230173 0.119029 0.331665 0.379929 0.138609 0.180144 -0.044981 0.299463 1.051495 0.027188 0.307044 0.941307 -0.347850 -0.575946 0.091268 -0.822625 -0.454750 0.051821 -0.156748 -0.319137 -0.022955 -0.284616 -0.117776 -0.069994 -0.006828 1.004428 -0.523829 0.766480 -0.174317 -0.056370 -0.853584 -0.404434
324 -0.459206 -0.661168 -0.356602 0.297753 -0.919239 0.595997 -0.173732 0.012101 0.330217 0.342522 -0.087459 0.769252 0.469166 0.195546 -0.374485 -0.464038 -0.438409 -0.095610 -0.489369 -0.558770 -0.953517 0.438445 0.038876 -0.268118 0.567723 0.385781 -0.949803 0.101566 -0.033754 -0.435420 -0.691706 -0.348811
134 0.763889 -0.535707 0.113830 0.742786 -0.594462 0.254611 0.031169 0.610166 1.256363 0.202918 -0.236289 0.313976 -0.992662 -0.272566 0.154293 -0.950403 -0.376336 -1.008479 -0.080608 -0.938037 -0.054670 -0.006249 -0.055956 0.391426 0.041842 0.314419 -0.376329 1.011133 0.486870 -0.987587 0.096327 -0.679633
45 0.228969 -0.421609 -0.447542 0.577957 0.845624 0.052169 0.719450 -0.208111 -0.083276 -0.387156 -0.419376 -0.534745 -0.369380 0.493087 1.258766 -1.630757 -0.372518 -0.469273 -0.446235 0.176233 -0.225758 -0.296690 -0.657403 0.330443 0.972085 1.015539 -0.594099 -0.659890 0.904194 0.250456 -0.948279 -0.793943
595 0.376357 -0.422714 -0.507933 0.735559 0.550051 -0.274089 0.041340 0.517589 -0.438627 -0.280211 -0.283389 0.264555 -0.035802 0.193467 1.045097 -1.350376 -0.961815 -0.211969 -0.174907 0.009750 -0.030346 -0.346861 -0.527968 -0.097389 0.917134 0.793302 -0.139048 0.009018 0.686674 -0.409925 -1.030087 0.063561
335 0.125078 -0.704780 -0.717903 0.694541 0.805404 -0.320880 0.252617 0.126383 -0.871981 -0.672948 -0.077085 -0.271358 -0.020034 0.586728 0.912031 -1.368433 -1.016338 0.202776 -0.368582 -0.294492 -0.207841 -0.079366 -0.602462 -0.038515 0.825646 0.963502 -1.027718 -0.077262 0.833331 -0.393126 -0.800744 0.225938
0 -0.921964 -0.933581 -0.413374 -0.533922 -1.287554 0.520204 -0.450259 0.965977 0.270019 -0.198940 0.246933 -0.133744 -0.241192 0.081763 0.311126 -0.868386 -0.112066 0.252521 -0.085974 -0.042785 -0.290001 0.755549 -1.017236 -0.361993 0.072887 0.734263 -0.643990 0.162446 0.115158 -0.822682 0.347772 -0.239191
328 -0.065236 -0.617724 -0.539400 0.526077 0.443715 0.043663 0.274849 0.226846 -0.789770 -0.291235 -0.563108 -0.107180 0.033041 0.466021 1.365649 -1.152955 -0.717419 -0.416465 -0.536183 0.156604 0.310297 -0.437427 0.041498 0.421294 1.050265 1.218167 -0.830228 -0.166157 0.814819 -0.325611 -0.714890 -0.128607
208 -0.048982 -0.138562 -0.433536 -0.005375 -0.317699 0.345106 -0.263558 0.236379 0.059086 -0.079264 0.242835 0.778327 -0.216922 -0.387687 -0.433262 -0.630185 0.041944 0.447957 0.295886 -0.485309 -1.273621 0.284632 -0.237962 0.112172 0.758215 0.988418 -1.101039 0.045384 -0.011279 -0.271303 0.198470 -0.216653
613 0.259893 -0.527163 -0.824037 -0.115276 0.995649 0.735898 -0.736080 -0.378476 0.051963 -0.267211 -1.229626 0.437158 -1.194383 -0.599485 0.804110 -0.500745 -0.187838 -0.023162 -0.526905 0.008916 0.422467 1.108813 -0.883095 0.380639 0.529280 0.123049 -0.960317 -0.591747 -0.431686 -1.963364 -0.274823 -0.325096
580 0.346478 -0.613031 -0.009646 -0.198130 -0.658420 0.339453 -0.183346 -0.036553 1.010140 0.446342 0.081497 0.021316 -0.301262 0.238430 -0.372268 -0.529584 -0.964689 0.087547 -0.271351 -0.670060 -0.705629 -0.105582 -0.585537 0.183021 0.086905 0.683748 -0.165716 0.117344 0.115838 -0.806231 -0.123677 -0.952165
32 -0.485827 -0.611399 -0.536963 0.853396 -0.500257 -0.219666 0.000980 0.061766 0.801793 -0.036818 0.235628 0.500380 -0.505583 -0.085281 -0.108834 -0.444426 -0.548821 0.214380 -0.354429 0.129437 -0.849157 0.087000 0.051781 -0.346512 -0.419194 0.948805 -0.474154 0.832886 -0.244422 -1.120695 -0.753466 -0.165743
581 0.172776 -0.575552 -0.265117 0.744513 -0.073891 -0.102091 -0.205609 0.362977 1.078845 0.191006 0.123740 0.600136 -0.485330 -0.314285 0.071332 -0.682333 -0.803677 0.005317 0.057680 -0.305440 -0.405520 0.091046 -0.189280 -0.301471 -0.710093 0.875059 -0.613354 1.120754 -0.021154 -0.800561 -0.665150 -0.134155
123 0.299929 -0.384707 -0.575544 0.606884 0.923827 0.063174 -0.094281 0.053460 -0.687906 -0.178214 -0.232479 -0.063912 -0.190161 0.276203 1.257126 -1.519439 -0.551533 -0.232645 -0.321597 -0.088678 0.139413 -0.698873 -0.056746 0.423939 0.511065 1.108142 -0.958256 -0.225769 0.810490 -0.501836 -0.974891 -0.111192
355 -0.809314 -0.364179 -0.022145 0.154848 -0.802753 0.902177 0.078246 0.651176 0.588349 0.092978 -0.189210 0.556133 0.204592 0.082806 -0.436752 -0.544934 -0.695642 0.266888 -0.354332 -0.640014 -0.530347 0.659822 -0.300887 -0.458310 0.507291 0.577903 -0.440894 -0.291291 0.197092 -0.602846 -0.158923 -0.533248
88 -0.502528 0.118384 0.080031 0.227284 -0.630697 0.703197 0.134597 0.317520 0.041236 0.002672 0.034431 0.843553 -0.530998 -0.110373 0.214345 -1.239260 0.260891 -0.560973 -0.299537 -0.525939 -0.583710 0.320150 -0.166074 -0.482676 0.571904 -0.041941 -0.452823 -0.171892 0.320330 -0.140243 -0.288308 0.194118
515 0.310381 -0.509236 -0.812047 0.621033 0.349781 -0.112174 -0.065302 0.406790 -0.396303 -0.313638 -0.510275 -0.030594 0.154743 0.303576 0.875815 -1.072512 -0.784489 -0.354657 -0.223453 0.103530 0.201334 -0.458150 -0.374103 0.336560 0.984702 0.821658 -0.212348 0.070074 0.497038 -0.411951 -1.002336 -0.259887
479 -0.770696 -0.672032 -0.550027 0.440833 -0.879050 0.370048 -0.327027 -0.201226 0.672445 0.046257 -0.268706 0.144331 -0.860866 -0.387066 -0.248410 -0.758074 -0.569966 0.356724 -0.469202 -0.449074 -0.665660 -0.166547 0.256946 -0.027391 0.059323 0.821757 0.314920 -0.020178 -0.214962 -0.524018 0.063434 -0.392069
421 0.254333 -0.603506 -0.450020 0.660644 0.684298 -0.234988 0.055581 0.498414 -0.752960 -0.248282 -0.627328 0.135424 -0.067818 0.126615 1.093215 -1.587438 -0.825042 -0.173772 -0.291501 0.094748 0.168646 -0.346337 -0.261328 0.110857 0.880305 0.977239 -0.361051 -0.072343 0.716905 -0.371246 -1.139153 -0.000134
578 -0.822106 -0.141206 -0.173125 0.020458 -0.408828 0.097323 0.837175 0.131575 0.779928 -0.529028 -0.351516 1.193642 -0.864385 0.220246 -0.541169 -0.690273 -0.812948 0.040080 -1.011785 -0.114877 -0.251502 0.730427 -0.069265 -0.225022 0.789620 -0.063247 -0.340621 0.158339 0.149996 -0.636807 -0.504995 0.222491
494 -0.976300 -1.355518 -0.569259 -0.182680 -0.283491 0.238298 0.452039 1.588294 0.167146 -0.765112 -0.036501 -0.184876 -0.564350 -0.137818 0.997744 -0.713274 -0.098903 0.346599 -0.212171 0.335888 0.096865 1.661102 -0.996014 -0.416751 0.509772 0.714848 -0.872381 0.187827 0.345216 -1.253855 0.264990 -0.221237
299 -0.303951 -0.366367 -0.447516 0.258257 0.252697 0.650902 -0.568633 1.017147 1.376256 -0.658175 0.777775 0.103408 -0.828680 -0.117227 -0.064134 -0.485426 0.160936 -0.860728 -0.303569 -0.549423 -0.251903 -0.299112 -0.008176 0.312798 1.114899 0.439297 0.271952 -0.596575 -0.574618 -0.747532 -0.182420 -1.128227
155 0.193221 -0.072882 -0.050112 -0.009889 -0.248472 0.369476 -0.388180 -0.320099 0.883958 0.422847 0.712504 0.902388 -0.295056 -0.258657 -0.150344 -0.436574 -0.331244 0.194690 0.176489 -0.457415 -1.138779 0.740947 -0.114100 0.509517 0.734776 0.434063 -1.332672 0.254052 -0.107638 -0.735273 -0.145285 0.066447
243 -0.392567 -0.542975 0.189557 0.545482 -0.816216 0.428647 -0.199995 -0.132831 0.117683 0.026565 0.584817 1.301354 -0.258882 0.334790 0.284721 -0.506219 0.093090 0.312035 -0.316568 -0.845811 -0.073694 0.757833 0.111187 0.610163 -0.351916 1.090038 -0.384546 -0.177298 -0.592598 -0.376218 0.030525 -0.506131
364 -0.280467 -0.631108 -1.037830 1.333189 -0.757497 -0.280568 -0.319671 0.290509 0.767451 -0.243073 0.085410 0.267496 -0.616597 -0.295517 0.036578 -0.690210 -0.610237 0.018783 -0.261760 0.154331 -0.864415 -0.235829 0.411839 0.134391 -0.079186 0.638953 0.048857 0.478814 -0.349934 -0.902687 -0.215055 -0.301143
159 -0.417754 -0.823260 -0.892870 0.973472 -0.447125 0.220543 -0.290985 0.081784 0.943528 -0.104129 -0.069054 -0.079290 -0.813970 -0.423716 -0.053691 -0.578874 -0.322006 0.197086 -0.164606 -0.031408 -0.816377 -0.009880 0.291159 -0.191093 -0.163305 0.742284 -0.153517 0.718957 -0.512369 -0.835125 -0.075968 -0.143305
3 -0.266517 -0.142838 -0.318967 0.307191 -0.055343 0.784249 0.188627 0.958712 0.991754 -0.715060 0.233106 0.333185 -0.613649 -0.048876 -0.064803 -0.672839 0.277461 -1.191948 -0.409074 0.099539 -0.401301 -0.568308 0.542341 0.437731 1.331455 0.571255 0.184032 -0.321324 -0.211981 -0.991831 -0.437205 -0.854616
258 -0.147715 -0.177571 -0.013290 -0.739946 0.091319 0.249980 0.488857 -0.017114 0.642328 -0.217958 -0.216404 1.604443 -0.757796 0.361309 0.397172 -0.744130 -0.397317 -0.394526 -0.665242 0.301604 -0.175949 -0.205447 0.678073 0.341257 0.384779 0.862032 -0.027032 -0.155399 -0.343869 -0.918503 0.064560 0.265117
154 -0.776750 -0.842420 0.424022 0.619198 0.019778 -0.121516 0.024946 0.256675 0.615363 0.357981 -0.022807 0.540623 -0.078787 0.189040 0.279821 -1.034414 -0.269982 -0.089164 -0.986429 -0.428739 -0.021546 0.892411 -0.068340 0.790522 0.003970 1.161057 -0.285893 -1.563589 -0.924169 -0.030905 -0.624951 -1.184997
183 -0.618121 -0.687012 -0.718680 0.479299 -0.298979 -0.618673 0.534829 0.451834 0.712982 -0.616368 0.569613 0.345481 -0.583174 0.041670 -0.091292 -0.436693 -0.625271 0.623370 -0.459959 -0.179754 -0.389056 0.773471 -0.181200 -0.395240 0.028883 0.524975 -0.739439 0.586551 0.205024 -0.718455 -0.504323 0.183745
244 -0.739733 -0.011555 0.163571 -0.949884 0.046724 0.327920 0.252508 0.096663 0.722566 -0.117949 -0.288817 1.016867 -0.812214 -0.056564 -0.430552 -0.977233 -0.093100 -0.274089 -0.422827 -0.078222 -0.616491 -0.077513 0.518392 0.250711 0.884886 0.957688 -0.116275 -0.109222 -0.343232 -0.571779 -0.057739 -0.502673
363 0.043870 -0.242994 0.286579 -0.572618 -0.195406 0.291650 0.778529 0.173210 0.649145 -0.237741 -0.465430 1.355781 -0.915125 0.213901 0.011857 -0.932216 -0.240743 -0.563429 -0.540810 0.491429 -0.393594 0.045418 0.544891 0.465410 0.566732 1.005584 -0.232629 0.016940 -0.288298 -0.812194 -0.037860 -0.050168
114 0.662303 -0.734312 -0.627003 0.665903 -0.502196 -0.181456 -0.326042 0.515101 1.303191 -0.221985 -0.172974 0.304635 -0.997965 -0.032736 0.170496 -0.677951 -0.381382 -0.339958 -0.028457 -0.952525 -0.156494 -0.119716 -0.049007 0.373134 -0.243422 0.280323 -0.466287 1.165892 0.156380 -0.944202 0.246556 -0.605976
368 -0.613186 -0.182485 0.202910 -0.751685 0.040607 0.531230 0.655444 0.502747 0.823964 -0.178260 -0.621899 1.314715 -0.645102 -0.092710 -0.057944 -0.899316 -0.054845 -0.290585 -0.591632 0.360280 -0.505632 -0.016082 0.705547 0.132297 0.690776 0.788074 -0.235170 -0.186451 -0.364340 -0.618582 -0.258771 -0.443997
230 0.110203 -0.614677 -0.640212 0.123178 0.390046 0.661810 -0.547978 0.474749 -0.473796 0.518766 0.213278 -0.767753 -0.036023 0.052285 1.135215 -1.847206 0.374319 -0.465824 -0.263173 -0.019871 0.522663 0.340111 -0.297603 1.017960 -0.353295 1.323958 -1.258505 -0.083811 0.584676 -1.098481 -0.346732 0.080758
85 0.173237 -0.703456 -0.649006 0.753043 0.641020 -0.447063 0.170745 0.364655 -0.807756 -0.516962 -0.224088 -0.083509 0.130638 0.581012 0.909878 -1.573476 -1.140103 0.189654 -0.377465 -0.317728 -0.138047 -0.212228 -0.691367 -0.047200 0.893617 0.880664 -0.628807 -0.117935 0.639538 -0.374553 -0.992049 0.096215
240 -0.042244 0.094173 -0.001872 0.651601 0.278964 0.919576 -0.132313 0.919900 1.128456 -0.397076 0.773528 0.056915 -0.556490 -0.270130 -0.025804 -0.870844 0.454752 -1.093199 -0.208208 -0.489869 -0.128517 -0.362821 0.183006 0.283677 1.095813 0.743966 -0.167199 0.036288 -0.028151 -0.900291 -0.505992 -0.766068
473 0.080011 -0.378587 -0.020840 -0.431584 -0.261151 0.347259 -0.026366 0.146326 0.874258 0.293666 0.376583 0.262321 -0.491094 0.597796 -0.244532 -0.732746 -0.728024 0.111714 -0.565551 -1.079632 -0.946774 -0.076364 -0.059882 -0.333087 0.340400 1.038424 -0.583528 0.171167 -0.109323 -0.111803 -0.301044 -0.246173
398 -0.895804 -0.992225 -0.567775 -0.624279 -0.768631 0.338536 -0.152272 1.155494 0.050774 -0.260126 0.164398 -0.397967 -0.168098 0.107343 0.690425 -1.001723 0.019322 0.389090 -0.205785 0.032753 0.064591 0.866357 -0.925717 -0.261008 0.149367 0.948588 -0.874145 0.290633 0.486159 -0.973344 0.311107 -0.087737
300 -0.180724 -0.505648 -0.356900 0.560089 -0.559567 -0.111687 -0.378654 -0.201580 0.605026 0.316473 0.123042 0.787334 -0.455493 -0.126149 -0.179764 -0.472044 -0.578615 -0.050509 -0.286800 -0.008253 -0.724575 0.228092 -0.126045 -0.183850 -0.580201 0.674162 -0.838372 0.656268 -0.368598 -0.802308 -1.025056 -0.223004
232 0.262171 0.028775 0.314633 0.697203 -0.593552 0.312186 0.035976 0.729649 1.108333 0.195050 -0.194703 0.613529 -0.911214 -0.253547 0.269400 -1.242861 -0.388548 -1.009347 -0.290114 -0.857920 -0.191271 0.002990 0.119083 0.116436 0.349941 0.116081 -0.235433 0.666688 0.621125 -0.844564 0.053445 -0.262206
307 0.139369 -0.600212 -0.626563 0.678794 0.736277 -0.079249 0.259063 -0.050068 -0.778105 -0.577577 -0.364565 -0.160053 -0.181516 0.509065 1.192142 -1.128271 -0.878080 -0.088716 -0.349923 -0.243174 -0.054334 -0.225026 -0.305030 -0.005973 0.849820 0.816562 -0.799043 -0.098573 0.857877 -0.366662 -0.593695 0.155456
377 -0.129284 0.022594 -0.261546 0.927176 0.012312 0.657575 -0.146816 0.833217 1.095674 -0.515283 0.551151 -0.033078 -0.725435 -0.237909 0.060928 -0.712241 0.187842 -1.231653 -0.310035 -0.512640 -0.243454 -0.201790 0.388605 0.462358 1.141405 0.366438 0.076143 -0.067161 0.082545 -1.067884 -0.470962 -0.759983
83 -0.773702 -0.212314 -0.044813 -0.236300 -0.270539 -0.099230 -0.442374 0.366278 0.767391 0.265117 0.771846 0.268052 -0.374882 -0.300300 -0.033734 -0.914829 -0.627235 0.003947 -0.262839 -0.047553 -1.347051 0.306102 0.249012 0.013319 0.310066 0.471906 -0.627609 0.056646 -0.118773 -0.574918 -0.316529 -0.124332
548 -0.592766 -1.235364 -0.229345 0.268178 0.158438 0.427660 -0.417304 -0.573998 -0.358524 -0.034798 -0.016965 1.332128 -0.437515 0.593599 1.160131 -0.463087 0.183165 0.389746 -0.580762 -0.931919 0.463762 0.772446 -0.056155 0.704052 -0.402383 1.403843 -0.339019 -0.990415 -0.811628 -0.678677 0.168556 -0.782478
501 0.500058 -0.694397 -0.762982 0.308996 0.904086 0.558592 -0.677256 -0.137096 -0.528461 0.525293 0.099501 -0.474462 -0.188022 0.017727 1.308966 -1.605955 0.195653 -0.388917 -0.230128 -0.087105 0.484344 0.090502 -0.180562 1.192095 -0.323497 1.342744 -1.031009 -0.216181 0.314874 -1.033800 -0.407532 0.057948
264 -0.095071 -0.502807 -0.001613 0.280957 -0.018355 0.275942 -0.159548 0.355220 0.353012 0.090286 0.207759 0.259116 -1.099984 -0.797247 0.740550 -1.093683 -0.427689 -0.980545 -0.170353 -1.288058 0.126207 1.271782 0.855252 0.686358 0.659914 0.094124 0.052032 0.470258 0.061527 -0.433843 -0.547580 0.498062
451 0.357156 -0.799510 -1.002182 0.013640 -0.585319 -0.338627 -0.307459 -0.046900 0.931228 -0.470760 0.552363 0.093102 -0.879137 0.248191 -0.468692 -0.518048 -0.875219 -0.050171 -0.292504 -0.998415 -0.423026 0.661859 -0.299650 0.206022 0.414617 0.674550 -0.094661 0.221467 -0.578634 -0.360814 0.497416 -0.746409
338 -0.507579 -0.256619 -0.147210 -0.130173 -0.576305 0.201340 -0.741780 -0.169970 0.765257 0.122620 0.426697 1.227855 -0.985336 -0.274844 0.140371 -0.539080 -0.467985 0.116898 -0.240659 -0.779030 -0.144618 -0.096546 -0.152803 0.271848 -0.062243 0.458947 -0.089661 -0.210769 -0.024593 -0.551258 0.122323 -0.004912
152 0.277943 -0.675968 -1.195430 -0.068495 1.199751 0.638597 -0.952579 -0.490315 -0.115098 -0.250742 -1.006140 0.485726 -0.915343 -0.235839 1.329118 -0.489349 -0.046741 0.216479 -0.310133 -0.114017 0.293120 0.792079 -0.819918 0.168796 0.644460 0.512682 -0.830165 -0.542275 -0.145622 -1.485335 0.001773 -0.211169
147 0.346110 -0.736585 -0.659275 0.207200 0.525464 0.667803 -0.646483 0.206279 -0.396108 0.701072 0.109794 -0.746656 -0.131557 -0.032396 1.211133 -1.846360 0.256892 -0.495868 -0.267611 -0.022350 0.617034 0.412329 -0.362551 1.242581 -0.417825 1.445042 -1.130368 -0.058562 0.457454 -1.148925 -0.432432 0.037001
429 0.261139 -1.484744 -1.024947 0.714139 1.485533 0.075721 -0.269159 -0.503065 -0.237427 -0.279993 -0.644114 0.311034 -0.413746 0.020115 1.855728 -0.333814 -0.728636 0.149590 -0.000963 0.236744 -0.196606 0.310624 -0.738739 0.244741 1.011858 1.084034 -0.138060 -0.357013 -0.111375 -0.643784 -0.088155 -0.411739
456 0.559287 -0.796594 -0.115962 0.378064 -0.887980 -0.138836 0.019341 0.297907 0.904307 0.276400 -0.252919 0.548126 -0.660112 -0.126794 -0.107264 -0.665680 -0.342182 -0.421313 -0.008304 -1.005738 -0.227793 0.038416 -0.212093 0.431914 0.006247 0.355765 -0.547371 0.985004 0.289102 -0.720776 -0.088042 -0.577955
385 -0.260573 0.064298 0.392592 -0.099258 -0.540330 1.056953 0.407997 0.715907 0.564546 -0.023998 -0.172276 0.780500 -0.918837 -0.336667 0.396042 -1.424665 -0.138846 -1.219780 -0.362826 -0.175215 -0.587580 0.263311 0.308697 -0.107411 1.031511 0.059456 -0.280147 -0.488198 0.374347 -0.319626 0.098043 -0.090220
165 0.233690 -0.478656 -0.825996 0.603474 0.788550 0.034437 0.016936 -0.231741 -0.622019 -0.150143 -0.243630 -0.303328 -0.113047 0.386229 1.370050 -1.232591 -0.418960 -0.351669 -0.326495 0.022343 0.145276 -0.524105 -0.459265 0.448473 0.707448 1.210429 -0.848609 -0.340346 0.915024 -0.396403 -0.731663 -0.349398
104 0.108262 0.278322 0.247535 0.169201 -0.090335 0.587855 -0.339717 0.279581 1.118553 -0.127049 0.274088 -0.232673 -1.190299 -0.069002 0.068399 -0.997582 -0.272175 -0.898508 -0.454768 -1.103129 -0.493780 0.254420 0.074587 0.230457 0.893915 0.010053 -0.250801 0.078939 1.137891 -0.864337 0.196486 -0.573415
257 -0.176694 -0.763102 -0.402105 -0.027428 -0.911766 0.355971 -0.138639 0.148134 0.181874 -0.044361 -0.185083 0.923469 -0.734744 0.342149 -0.429220 -0.859390 -0.858687 0.155840 -0.078683 -0.214535 -0.902489 0.059756 -0.379949 0.426924 0.271403 0.638836 -0.497423 -0.526347 0.134248 0.290288 0.027747 -0.049758
522 -0.882408 -1.194681 -0.505542 -0.397821 -0.496894 0.288991 0.165811 1.454050 0.136308 -0.504220 0.062380 -0.376123 -0.328017 -0.044410 0.891534 -0.859190 0.040120 0.315383 -0.192994 0.230237 0.131013 1.245407 -0.936496 -0.280335 0.315254 0.810842 -0.872749 0.215105 0.422928 -1.118266 0.285616 -0.168730
334 0.218745 -0.462035 -0.702237 -0.106351 0.908780 0.638224 -0.505908 -0.215826 0.010885 -0.336641 -1.356345 0.368276 -1.114380 -0.644218 0.817067 -0.514358 -0.360853 -0.188607 -0.536742 0.024459 0.298729 1.042673 -0.951073 0.275896 0.734186 0.028209 -0.880795 -0.553044 -0.324678 -1.850895 -0.457217 -0.362218
108 -0.015498 -0.741642 -0.809364 -0.094793 0.309851 0.509232 -0.499873 0.373483 -0.522376 0.453244 0.034092 -0.326688 0.042105 0.138434 1.415382 -1.356398 0.363427 -0.210001 -0.173606 0.112331 0.676628 0.344458 -0.460351 0.726824 -0.356944 1.353526 -0.815567 -0.014700 0.473463 -1.085901 -0.103703 0.190329
386 -0.776454 -0.824575 -1.124603 0.633819 -0.825555 0.049196 -0.326305 0.152347 0.603491 -0.147347 0.050419 0.074243 -0.757229 -0.732655 -0.177390 -0.618776 0.058127 0.509382 -0.311043 -0.333614 -1.075996 -0.068665 0.154614 0.109924 0.466450 0.845468 -0.187928 0.037320 -0.819302 -0.609366 0.201558 -0.443770
516 0.251984 -0.540715 -0.770518 0.040977 0.982802 0.630477 -0.573797 -0.203560 0.184706 -0.362204 -1.366060 0.298921 -1.197319 -0.750320 0.815343 -0.453703 -0.415371 -0.156862 -0.489431 0.090154 0.222912 1.220189 -1.015867 0.206894 0.839607 -0.027759 -0.925931 -0.462123 -0.346111 -1.878441 -0.355727 -0.396225
290 0.030836 0.472582 0.234570 0.591257 -0.227281 0.664879 -0.286525 0.205911 0.875343 -0.292032 0.581841 0.163132 -0.933129 -0.162614 0.184667 -1.129663 -0.034277 -1.077002 -0.333459 -0.899926 -0.402642 0.426581 0.165923 0.113765 0.873127 0.139959 -0.256903 0.109807 0.772030 -0.825705 0.064840 -0.290618
437 -0.555472 -1.034060 0.494234 0.771749 -0.382945 0.229932 0.023897 0.000809 0.168767 0.167282 0.225833 0.782489 -0.228736 0.301447 0.528506 -0.823223 0.072986 0.099100 -0.688222 -0.630667 0.132653 1.241679 0.003532 1.020898 -0.271753 1.330914 -0.479957 -1.003798 -0.962227 -0.382225 -0.156539 -1.104844
117 0.276875 -0.501396 -0.840548 -0.067117 1.031920 0.630637 -0.616393 -0.269249 0.136023 -0.404954 -1.381841 0.392525 -1.209952 -0.670626 0.863909 -0.422732 -0.374504 -0.082984 -0.489207 0.074669 0.280041 1.096140 -0.980806 0.138755 0.831544 0.035796 -0.920640 -0.470629 -0.292099 -1.842980 -0.371517 -0.352602
510 0.017068 -0.290278 -0.650070 -0.322862 -0.409333 0.097228 -0.085873 -0.397184 0.155391 0.042910 -0.451126 0.288252 -0.828034 0.019107 -0.536217 -0.879142 -0.714124 0.417741 -0.409501 -0.769702 -0.736676 0.082691 -0.268609 0.253484 0.459316 0.645385 -0.267317 0.042390 0.604638 0.116992 0.014391 -0.594839
276 -0.956695 -1.077290 -0.518121 -0.361306 -0.834027 0.348078 -0.091281 1.228670 0.155082 -0.438985 0.060436 -0.325034 -0.333055 0.027420 0.562237 -0.740747 0.039895 0.379214 -0.138043 0.131295 -0.116451 1.137305 -0.960571 -0.364620 0.227466 0.741359 -0.690473 0.282409 0.265630 -1.078017 0.360581 -0.282666
7 -0.288664 -0.566940 -0.412485 0.266157 -0.540161 0.390195 -0.273291 -0.658256 0.540945 0.616688 0.629047 1.255551 -0.123711 -0.568915 0.359914 -0.328580 -0.480359 0.647453 -0.037576 -0.179542 -0.063211 0.592063 -0.183622 0.695152 0.139951 0.511506 -0.566293 -0.322244 -0.642446 -0.736836 -0.064221 0.247181
414 -0.021469 -0.541542 -0.825887 0.627189 0.748038 -0.494139 0.471650 0.295592 -0.580553 -0.745103 0.009569 -0.105893 -0.057093 0.341411 0.810754 -1.005571 -0.885739 0.478939 -0.259458 -0.048201 -0.252769 0.144238 -0.602342 -0.450397 0.770331 1.070643 -0.933111 0.204440 0.884389 -0.319736 -0.763095 0.208835
48 0.161493 -0.311955 -0.692011 0.569133 0.407421 0.065082 -0.028371 -0.000609 -0.190032 -0.207030 -0.111225 -0.079903 -0.064766 0.282439 1.142480 -0.900816 -0.436676 -0.465723 -0.192760 0.194571 -0.105896 -0.679394 -0.432268 0.226707 0.798169 0.984550 -0.425098 -0.139981 0.664738 -0.219345 -0.641381 -0.366429
185 -0.497799 -0.266767 -0.559313 0.798629 -0.120206 0.971585 -0.238708 0.782279 1.053961 -0.441571 0.571300 -0.369829 -0.855749 -0.561822 0.009540 -0.629924 0.534702 -0.623500 -0.327554 -0.095655 -0.601013 -0.471222 0.476123 0.145916 0.846397 0.825364 0.035461 0.043817 -0.474667 -1.087202 -0.138620 -0.711844
40 -0.332726 -0.322914 -0.170415 0.206797 0.138196 0.823741 0.229006 0.903652 1.037722 -0.479692 0.315508 0.376255 -0.592884 -0.223890 -0.022721 -0.725538 0.663097 -1.074278 -0.266177 0.052202 -0.439101 -0.363352 0.529698 0.342889 0.971875 0.582727 -0.111203 -0.345422 -0.483700 -0.960651 -0.266973 -0.673634
34 -0.202449 -0.264493 -0.091940 -0.174438 -0.313398 -0.158808 -0.407259 0.170925 0.333682 0.647717 0.228879 0.840576 -0.482786 -0.826566 -0.200771 -0.750409 -0.315223 0.350870 0.201407 -0.497977 -1.591959 0.585008 -0.009925 0.349203 0.408595 0.646276 -1.036127 0.164003 -0.009671 -0.562039 -0.227869 -0.179488
460 -0.428515 0.125493 0.420757 0.058355 -0.746563 0.864237 0.314340 0.588182 0.197683 -0.139323 -0.132029 1.042053 -0.945713 -0.243688 0.368647 -1.540019 0.046746 -1.185375 -0.414162 -0.238657 -0.554841 0.429007 -0.030740 -0.206578 0.969260 -0.065637 -0.455304 -0.526452 0.494373 -0.334252 -0.066801 0.158742
20 -0.963141 -0.212415 -0.323982 0.511573 -0.983262 0.873384 -0.214726 0.265775 0.312974 0.439763 -0.279281 0.570304 0.853632 -0.173545 -0.343177 -0.888030 -0.519439 0.103381 -0.395012 -0.676679 -0.498517 0.371332 -0.192041 -0.417978 0.675244 0.617633 -0.442404 -0.209673 0.254017 -0.470372 -0.933967 -0.584598
361 -0.434147 -0.135698 -0.409168 0.321169 -1.200359 0.738349 -0.545586 0.278737 0.593936 -0.270391 0.236871 0.845849 -0.098566 0.394164 -0.292896 -0.534460 -0.450090 -0.072429 -0.377971 -0.132562 -0.613551 0.435691 -0.504765 -0.019888 0.530772 0.158569 -0.727352 0.036211 -0.275709 -0.644436 -0.429329 -0.079302
400 0.172126 -0.481844 -0.744982 -0.132794 0.845558 0.712282 -0.625081 -0.244829 0.220180 -0.303617 -1.313577 0.400198 -1.241588 -0.758905 0.701138 -0.474504 -0.246935 -0.096134 -0.551163 0.006684 0.318928 1.300290 -0.932603 0.257519 0.650882 -0.026479 -1.027930 -0.538225 -0.435547 -2.002814 -0.316801 -0.361590
113 -1.026220 -1.261093 -0.455040 -0.235783 -0.703458 0.381359 0.246488 1.533381 0.122466 -0.636825 0.029445 -0.373851 -0.355374 -0.035870 0.848356 -0.830843 0.028210 0.247738 -0.222844 0.280613 0.116247 1.427296 -0.974529 -0.324332 0.422253 0.731674 -0.806673 0.196771 0.303207 -1.121649 0.294650 -0.272989
547 0.169954 -0.681617 -0.636877 0.110255 0.509485 0.636989 -0.541626 0.231256 -0.536650 0.531584 0.152158 -0.672565 -0.061960 0.103676 1.159464 -1.797775 0.321282 -0.418111 -0.287016 -0.042837 0.561485 0.342197 -0.332693 1.057556 -0.398624 1.353102 -1.178206 -0.194285 0.531884 -1.050377 -0.382002 0.105308
121 -0.493637 -0.662707 -0.570521 0.656622 -0.566607 -0.666127 -0.255164 0.725921 0.493610 -0.162134 0.270773 0.731568 -0.143140 0.187129 0.151105 -0.793301 -0.661874 -0.538779 -0.140108 -0.161606 -0.691574 -0.617244 0.148155 0.794957 0.474564 0.493359 0.257238 -0.560896 -0.086115 0.015915 -0.683225 -0.819208
60 -0.268541 -0.793063 -0.420046 -0.567031 -0.908233 0.281697 -0.203671 -0.005145 0.751586 0.022333 0.029376 0.707331 -0.591757 -0.083597 -0.245158 -0.609048 -0.099950 0.312457 -0.469678 -0.950671 -0.342347 0.080253 -0.088932 0.330413 0.444578 0.914204 -0.231057 0.276235 -0.519685 -0.556360 0.297947 -0.338947
393 -0.102308 -0.692430 -0.486555 -0.892878 0.376317 0.490318 0.017640 -0.537849 0.026710 -0.080548 -0.367113 1.746564 -0.666533 0.347345 0.988598 -0.438026 0.025685 0.194282 -0.412929 0.192775 0.220990 -0.079933 0.326938 0.537861 -0.025869 1.326360 -0.125369 -0.286561 -0.592272 -1.048520 0.296342 0.251800
12 -0.330125 -1.062014 -0.585530 -0.057772 0.293115 0.403933 -0.533850 -0.652629 -0.381255 0.011910 -0.058748 1.286347 -0.319111 0.552286 1.236739 -0.373682 0.089957 0.403198 -0.364883 -0.644841 0.492348 0.144806 -0.128969 0.613266 -0.315365 1.354458 -0.233353 -0.678023 -0.519966 -0.762258 0.114564 -0.356811
427 0.282113 -1.184013 -0.931822 0.397138 1.321799 0.137498 -0.275309 -0.459916 -0.289810 -0.258337 -0.682230 0.501067 -0.451547 0.074345 1.826227 -0.345895 -0.521952 0.137252 -0.041137 0.123787 -0.074192 0.273007 -0.651900 0.146849 0.894993 0.938424 -0.092493 -0.336873 -0.032298 -0.702700 0.041284 -0.225095
171 -0.373972 -0.479807 -1.105865 0.193797 -0.001355 -0.637083 0.683184 0.391839 0.479369 -1.162402 0.628128 0.104540 -0.733665 0.384561 -0.503195 -0.684249 -0.534441 0.382437 -0.440617 -0.397599 -0.479612 1.099406 -0.518868 -0.456118 0.601802 0.794256 -0.653188 0.505628 0.252874 -0.547846 -0.063314 0.209311
408 0.396725 -0.378993 -0.127292 0.564649 -0.058619 -0.160849 -0.019879 0.311221 1.391978 -0.126263 0.160295 0.913202 -0.700724 -0.298565 0.014741 -0.600636 -0.732574 0.244553 -0.054812 -0.526766 0.042590 0.198509 -0.264182 0.063557 -0.411231 0.699621 -0.740650 1.136721 -0.059895 -0.578857 -0.736476 -0.384268
535 0.226345 -1.382976 -0.999994 0.560119 1.384413 0.124657 -0.252411 -0.573287 -0.119779 -0.317675 -0.701349 0.263157 -0.530539 0.003802 1.792955 -0.294620 -0.655426 0.066073 -0.035704 0.214126 -0.215472 0.336852 -0.839554 0.224671 1.036767 0.988631 -0.179013 -0.437029 -0.096212 -0.660865 -0.038854 -0.467815
274 0.217972 -0.469722 -0.758459 -0.060477 0.892774 0.658972 -0.629274 -0.236783 0.154354 -0.314767 -1.298375 0.377189 -1.198783 -0.669239 0.736275 -0.468071 -0.281375 -0.101087 -0.548875 -0.030413 0.307722 1.170370 -0.955881 0.243471 0.671717 0.024614 -0.972701 -0.527979 -0.354721 -1.901105 -0.349664 -0.407895
184 0.782156 -0.735824 -0.352177 0.891899 -0.552064 -0.001669 -0.176687 0.374511 1.108131 0.140824 -0.062711 0.345687 -0.886696 -0.196684 0.123463 -0.814492 -0.382548 -0.716979 0.135064 -0.854573 -0.246945 -0.050549 -0.007146 0.491770 -0.114128 0.415092 -0.495205 1.201014 0.376654 -0.913253 -0.079640 -0.469470
119 0.182028 -0.479261 -0.735967 -0.147532 0.879927 0.703322 -0.585096 -0.225880 0.130336 -0.311733 -1.288057 0.378419 -1.188635 -0.686459 0.745431 -0.528546 -0.261132 -0.098437 -0.556871 0.026708 0.313530 1.201583 -0.914670 0.257255 0.627644 0.041216 -0.982245 -0.501460 -0.364727 -1.905789 -0.335674 -0.331361
612 0.339107 -0.545897 -0.622134 0.484320 0.585697 -0.160738 0.042734 0.501051 -0.683995 -0.244451 -0.633373 -0.239967 0.095884 0.384805 0.779260 -1.598160 -0.968183 -0.238390 -0.350442 -0.062792 0.257249 -0.354043 -0.404629 0.436812 1.015622 0.947083 -0.581101 0.048802 0.745348 -0.427774 -1.189404 -0.101040
214 -0.689899 -1.015481 0.558469 0.905468 0.197048 0.042843 0.239682 0.432414 0.198997 0.129269 -0.250468 0.255930 -0.072275 0.155052 0.876112 -1.192913 -0.088382 -0.247137 -0.938977 -0.327123 0.349524 1.479212 -0.121046 1.155008 0.066318 1.233848 -0.420607 -1.571575 -0.792366 -0.282658 -0.509133 -1.379942
226 -0.633344 -0.930053 -0.716568 -0.449353 -0.236194 0.396006 -0.144464 1.063669 -0.411530 -0.059923 0.002631 -0.503863 0.088624 0.194622 1.406491 -1.168662 0.333631 0.130356 -0.178843 0.284634 0.519346 0.447463 -0.699647 0.125254 0.050044 1.233732 -0.881335 0.013721 0.603453 -1.007580 0.120093 -0.031369
319 -0.964485 -1.197099 -0.457805 -0.358257 -0.371669 0.418016 0.175798 1.532198 0.000275 -0.430117 0.052745 -0.327650 -0.309996 -0.048863 1.127694 -0.970663 0.145451 0.248610 -0.231700 0.298942 0.222463 1.421870 -0.919788 -0.219500 0.405867 0.923976 -0.928384 0.066852 0.478214 -1.195821 0.275007 -0.218020
450 -0.195089 -0.221854 -0.568905 0.896802 -0.093449 0.516360 -0.119976 0.870331 0.728276 -0.497117 0.449296 0.114575 -0.195574 -0.051261 0.049251 -0.643012 0.101295 -0.957615 -0.132874 -0.122971 -0.252116 -0.640474 0.187737 0.531356 1.225446 0.554932 0.276169 -0.291334 -0.085998 -0.964192 -0.663244 -0.881712
172 0.358871 -0.368480 -0.213027 0.797907 -0.350466 0.200078 -0.287228 0.217615 1.033341 0.219107 0.470787 0.849726 -0.371395 -0.309203 -0.018444 -0.641254 -0.407462 0.030654 -0.061240 -0.693721 -0.313744 -0.209069 -0.182836 -0.000829 -0.335661 0.945391 -0.566638 1.082211 -0.094062 -0.616278 -0.755717 -0.390978
82 0.193578 -0.702808 -1.207232 0.200447 -0.447857 -0.501444 0.135845 -0.076741 0.468545 -0.982213 0.634925 -0.045263 -0.752168 0.560083 -0.637508 -0.691811 -0.228759 -0.284638 -0.272571 -0.788584 -0.718201 0.950463 -0.283941 -0.019402 0.567653 0.514105 -0.394631 0.399641 -0.259521 -0.797485 0.386580 -0.042354
572 0.333247 -0.497760 -0.630540 0.108316 0.687415 -0.069685 0.294653 -0.604851 -0.011202 -0.183708 -0.343489 -0.418024 -0.241008 0.775344 0.767293 -1.056638 -0.742299 -0.249601 -0.328136 0.028852 -0.183553 -0.284875 -1.159495 0.449972 0.848126 1.070479 -0.552239 -0.511344 0.657143 0.088250 -0.825432 -0.619911
554 0.064415 -0.453055 -0.793670 -0.335311 -0.144771 -0.082396 -0.411036 0.308613 1.224702 -0.575999 0.681433 0.019317 -1.001458 0.011101 -0.345311 -0.553037 -0.595125 -0.080264 -0.545627 -0.844312 -0.512287 0.290529 -0.298419 -0.118004 0.800527 0.536399 -0.011061 -0.144371 -0.591157 -0.261125 0.567634 -0.826467
39 -0.471862 0.087045 -0.125684 -0.311649 -0.634586 0.343789 -1.081948 0.169046 1.084077 -0.173220 -0.053014 -0.146177 -0.646441 0.245459 0.019068 -0.863690 -0.950172 0.499318 -0.546403 -0.647301 -0.894850 0.710918 -0.453669 -0.242070 0.190020 0.089738 -0.760497 -0.009551 0.069034 -0.689052 0.239831 -0.232356
285 0.007448 -0.134885 -0.799253 1.083505 -0.355647 -0.323452 -0.268505 0.426894 0.004482 -0.199716 0.173729 0.373359 -0.026476 0.197489 0.704065 -0.967764 -0.485573 -0.505541 -0.264289 0.119214 -0.430958 -1.069303 0.051499 0.495184 0.572231 0.703400 -0.076261 0.181012 0.334574 -0.363912 -0.756385 -0.446717
591 0.461910 -0.461794 -0.735090 0.302086 0.811826 0.572640 -0.719687 -0.026874 -0.625420 0.522590 0.161760 -0.480397 -0.072048 0.166104 1.147940 -1.849926 0.184634 -0.414672 -0.277494 -0.244946 0.419935 -0.042771 -0.205881 1.132430 -0.276485 1.283972 -1.108573 -0.237892 0.454086 -0.972899 -0.527879 0.094519
16 0.207414 -0.485182 -0.757666 -0.136266 0.905779 0.671504 -0.598460 -0.232876 0.076175 -0.310924 -1.313866 0.390589 -1.169294 -0.688246 0.856017 -0.475090 -0.292748 -0.116575 -0.516895 -0.007122 0.313106 1.202119 -0.926532 0.215998 0.685697 -0.010345 -0.916777 -0.498573 -0.337970 -1.925758 -0.307613 -0.264507
327 0.430353 -0.357278 -0.984621 0.714386 0.404623 -0.270364 -0.133244 0.132344 -0.026141 -0.174954 -0.288230 0.208322 -0.039117 0.302061 0.997375 -0.887870 -0.670938 -0.420994 -0.079386 0.074894 -0.065354 -0.793079 -0.457449 0.522803 0.986399 0.889052 0.133390 -0.051211 0.402186 -0.348320 -0.907249 -0.482757
566 0.072465 -0.718315 -0.582757 0.577655 0.735192 -0.120094 0.185615 0.360622 -0.588438 -0.143199 -0.665984 -0.199109 0.014426 0.188129 1.135851 -1.213857 -0.556011 -0.279421 -0.340002 0.453558 0.294411 -0.340913 -0.204511 0.508131 0.912771 1.277198 -0.516172 -0.150279 0.596390 -0.376962 -1.014282 -0.381654
527 0.081796 -0.815655 -0.589701 0.129689 0.332813 0.535956 -0.433457 0.447797 -0.431720 0.629134 0.261566 -0.759857 0.009297 0.027686 1.229306 -1.762473 0.366724 -0.412040 -0.266122 0.082974 0.687787 0.480059 -0.285590 1.138194 -0.526911 1.503857 -1.137765 -0.020709 0.512192 -1.113387 -0.330594 0.072610
49 0.631468 -0.452330 -0.314407 0.601182 -0.344803 0.278521 -0.143743 -0.585593 0.922751 0.722879 1.159826 0.803474 0.015204 -0.838642 0.405102 -0.573606 -1.042480 0.392405 0.222760 0.273084 -0.563939 0.875226 -0.320845 0.493726 1.062288 0.107199 -1.006902 -0.668205 -0.446211 -0.929190 -0.001385 0.033230
585 -0.005472 -0.399350 -0.415658 -0.476885 0.108887 0.196238 -0.251714 -0.448302 -0.124272 -0.068560 -0.291968 -0.325817 -0.429381 0.685924 -0.146872 -0.836114 -0.790641 0.174629 -0.155965 -0.414513 -0.546802 -0.466409 -0.760016 0.263927 0.871629 0.876090 -0.420796 -0.404766 0.711547 0.411904 -0.303952 -0.601669
78 -0.606471 -1.060217 0.558248 0.847811 0.122192 0.049280 0.307755 0.298871 0.154532 0.147373 -0.208574 0.375425 -0.211072 0.206857 0.848442 -1.027547 -0.002118 -0.169055 -0.900234 -0.378092 0.317024 1.464750 -0.056430 1.054075 -0.022329 1.229239 -0.442226 -1.385797 -0.778226 -0.345279 -0.365862 -1.197431
166 -0.308766 -0.762670 -0.566528 0.351717 -0.600638 -0.452117 0.059504 0.387346 1.040606 -0.469601 0.472973 0.606046 -0.559441 0.278934 -0.030714 -0.395688 -0.374796 0.250911 -0.208745 -0.581236 -0.119517 0.346661 -0.294164 -0.137686 -0.303851 0.365027 -0.825630 0.687211 -0.052387 -0.561803 -0.575007 -0.086273
442 -0.876861 -0.710816 0.166134 0.237821 -0.091066 -0.080731 -0.143218 0.282387 0.975082 0.303295 0.077915 0.574866 -0.072313 0.033136 -0.350686 -0.997356 -0.492064 -0.044467 -0.735658 -0.461030 -0.254075 0.481702 -0.216204 0.287724 0.131944 0.866182 -0.114831 -1.414580 -0.722873 0.317423 -0.713198 -0.864687
127 0.181776 -0.479721 -0.575329 0.756964 0.820935 0.016734 0.238957 -0.136289 -0.434810 -0.236599 -0.297608 -0.282773 -0.322194 0.239571 1.190527 -1.229805 -0.462252 -0.424975 -0.328665 -0.007205 0.052401 -0.636288 -0.170042 0.481414 0.694223 1.085045 -0.766916 -0.364722 0.826190 -0.163813 -1.006509 -0.611133
237 0.211345 -0.403406 -0.724160 -0.124219 0.847628 0.713373 -0.588931 -0.152034 0.105554 -0.299107 -1.313735 0.316630 -1.170557 -0.715978 0.688190 -0.533695 -0.245244 -0.148153 -0.557886 0.054603 0.319678 1.165595 -0.958417 0.234177 0.685051 -0.023287 -0.996561 -0.507600 -0.324479 -1.929450 -0.382206 -0.299812
321 -0.269937 -0.721979 -1.186178 0.608325 -0.695773 -0.669254 -0.353285 -0.005314 0.312835 -0.113952 -0.036825 0.385062 -0.364929 -0.349381 0.060086 -0.707243 -0.303856 0.219500 -0.317273 -0.540928 -1.036873 -0.579870 0.064541 0.410594 0.625018 0.496482 -0.252873 -0.068198 -0.427045 0.030431 -0.129153 -0.420628
440 0.036706 0.148777 -0.228433 -0.178817 -0.265257 0.195032 -0.363345 0.713623 1.621983 -0.537090 0.160765 0.887759 -0.943340 0.304538 -0.087526 -0.745196 -0.816912 0.305446 -0.301935 -0.520978 -0.487240 0.443918 -0.292916 -0.389892 0.091263 0.157031 -0.967836 0.424091 0.205408 -0.622150 -0.052366 -0.118459
180 -0.484108 -1.017471 0.525816 0.874787 0.502707 -0.198859 0.424295 0.446223 0.598572 0.283273 -0.426802 -0.081755 -0.426997 0.008706 0.606355 -0.953217 -0.173664 -0.197666 -1.051850 -0.083332 0.301429 1.501987 -0.053659 0.808420 0.065434 1.046424 -0.335337 -1.398705 -0.796173 -0.393221 -0.428566 -1.213913
354 -0.251421 0.405612 0.433771 0.085259 -0.335608 0.043535 0.298240 0.450434 0.804449 -0.083773 -0.297084 1.221754 -0.982219 -0.026996 0.415130 -1.040927 -0.762614 -0.854226 -0.720070 -0.263711 -0.296166 0.089255 0.584800 0.218491 0.855584 0.170285 0.122316 0.207905 0.559934 -0.775370 0.064969 -0.029860
118 0.412214 -0.560766 -0.831139 0.683770 0.433248 -0.376842 0.303055 0.276075 -0.429308 -0.308998 -0.421583 0.060992 0.091435 0.525381 0.896567 -1.367289 -0.902362 -0.072621 -0.323574 -0.186522 0.098327 -0.458658 -0.642202 0.240443 0.903677 1.049929 -0.206579 0.077473 0.662995 -0.230752 -1.100096 -0.382254
163 0.241641 -1.562157 -0.928454 0.789587 1.356187 0.073501 -0.210553 -0.420148 -0.056443 -0.236897 -0.497517 0.214793 -0.464842 -0.041092 1.926382 -0.344004 -0.694377 0.047557 0.080456 0.198109 -0.374268 0.400699 -0.772278 0.197721 1.145785 1.047817 0.022290 -0.278508 -0.057019 -0.487767 0.102298 -0.490223
471 -0.264393 -0.829171 -0.814935 -0.573102 0.274079 0.357151 -0.620320 -0.256940 -0.435136 0.162569 -0.057264 0.675424 -0.124257 0.401057 1.146290 -0.641456 0.236530 0.362376 -0.201570 -0.276692 0.379858 -0.093536 -0.260405 0.474188 -0.263478 1.169120 -0.597436 -0.455932 -0.106177 -0.765409 0.211509 0.088523
608 -0.291358 -0.087633 -0.460459 1.009293 -0.187462 0.489819 -0.175116 0.911582 0.801926 -0.502542 0.578425 0.179943 -0.236637 -0.244484 0.006347 -0.608963 0.273233 -0.911117 -0.219405 -0.280585 -0.269499 -0.438075 0.201165 0.562014 1.162036 0.565183 0.034810 -0.181684 -0.082341 -0.927744 -0.779931 -1.021707
315 0.239641 -0.198538 -0.671023 0.783016 0.447877 -0.053070 -0.002871 0.078044 -0.175601 -0.271641 -0.230416 0.166082 -0.155520 0.138518 1.222233 -0.875165 -0.453616 -0.539868 -0.195443 0.108921 -0.053739 -0.796663 -0.234364 0.187319 0.855066 0.771942 -0.151334 -0.107114 0.708440 -0.274723 -0.698035 -0.339024
150 0.273498 -0.720448 -1.071364 -0.017897 1.170789 0.674089 -0.907772 -0.438106 0.045594 -0.280282 -1.011195 0.363740 -1.033200 -0.415077 1.090665 -0.374151 -0.094483 0.164268 -0.328433 0.017578 0.329853 0.951293 -0.844804 0.218243 0.629732 0.402202 -0.782140 -0.537726 -0.271017 -1.587152 -0.074073 -0.299561
65 -0.409862 -0.118471 -0.389041 0.706531 0.113191 0.753451 -0.277592 0.953086 0.972709 -0.508975 0.537406 -0.076223 -0.493629 -0.215265 0.149174 -0.730860 0.452383 -1.006909 -0.352075 -0.235000 -0.296201 -0.533603 0.370529 0.488556 1.232840 0.667072 0.185987 -0.404615 -0.337696 -1.000687 -0.398038 -0.900807
426 -0.687988 -0.620107 -0.612709 0.393701 -0.526722 -0.109708 0.354623 0.628731 0.501229 -0.468314 0.747766 0.447969 -0.154608 0.071708 -0.040422 -0.463189 -0.403309 0.551991 -0.246033 -0.265065 -0.418361 0.370178 -0.259535 -0.355297 0.187253 0.930078 -0.598972 0.400964 0.198813 -0.520422 -0.341062 0.146268
517 0.013603 -0.237016 0.117290 -0.742304 -0.260747 0.167342 0.680945 0.101606 0.618850 -0.292853 -0.232208 1.376650 -0.729183 0.339610 0.025682 -0.964324 -0.406296 -0.575441 -0.474010 0.481939 -0.430500 -0.309047 0.285840 0.334662 0.746570 1.038787 -0.323461 0.081833 -0.153337 -0.615796 -0.258204 0.204186
46 -1.074430 -0.132907 -0.099178 -0.186282 -0.513110 0.188288 0.361021 -0.126334 0.679227 -0.215202 -0.381347 0.899128 -0.658673 0.230622 -0.611347 -0.829798 -0.712736 0.088382 -1.344220 -0.428377 -0.651265 0.454079 -0.152714 -0.428688 1.034696 -0.195556 -0.586811 0.011187 0.134646 -0.540924 -0.735306 -0.035430
395 0.111747 -0.517340 -0.534198 0.521747 0.619419 0.127505 0.323718 -0.022739 -0.490965 -0.263601 -0.413565 -0.281126 -0.106464 0.362429 1.351950 -0.990062 -0.639348 -0.500603 -0.480981 0.222153 0.178218 -0.424565 -0.244014 0.473527 1.036580 1.263903 -0.780756 -0.202044 0.803417 -0.176078 -0.681778 -0.405016
186 -0.151419 -0.505328 -0.630700 0.467970 0.291915 -0.435548 0.567112 0.335022 -0.415962 -0.649703 0.251854 -0.064433 -0.099579 0.269838 0.335571 -0.795455 -0.771652 0.706978 -0.168645 -0.050975 -0.432862 0.379197 -0.512829 -0.552782 0.528661 1.145588 -1.122587 0.524830 0.745373 -0.233097 -0.523930 0.326072
223 -0.654241 -0.952669 0.525542 0.892922 0.008261 0.113978 0.193288 0.298231 0.289948 0.154351 -0.043524 0.443308 -0.119735 0.091852 0.855607 -1.127109 -0.121360 -0.196170 -0.904927 -0.418330 0.316176 1.368123 -0.046670 1.101985 0.042969 1.243511 -0.388291 -1.388773 -0.820974 -0.349878 -0.473554 -1.180417
175 -0.301029 -0.596618 -0.541142 0.278550 -0.947854 0.215867 -0.437950 -0.250355 0.757777 -0.388752 0.018403 1.001122 -0.545252 0.627110 -0.303446 -0.481481 -0.298251 0.039393 -0.288128 -0.541696 -0.657490 -0.097166 -0.115160 0.463602 0.136590 0.500301 -0.536616 -0.099125 -0.256932 -0.237540 -0.294072 -0.162263
313 0.088309 -0.505686 -0.827250 0.765246 0.692289 -0.052079 0.185512 -0.082079 -0.341018 -0.397196 -0.397104 -0.213131 -0.355333 0.276325 1.261649 -0.969737 -0.572988 -0.429004 -0.249547 0.038652 0.059129 -0.594381 -0.423086 0.295516 0.998829 1.093110 -0.593682 -0.385440 0.969348 -0.268990 -0.986987 -0.647947
261 0.367050 -0.932552 -1.260461 0.563854 -0.211243 -0.502588 -0.125207 0.244379 1.075966 -0.671911 0.697747 0.072867 -0.722208 0.339110 -0.385232 -0.555218 -0.837844 -0.312814 -0.161969 -0.570383 -0.402056 0.501729 -0.328828 0.132794 0.086428 0.494886 -0.127278 0.449191 -0.436530 -0.442386 -0.035370 -0.348223
418 0.340704 -0.248782 -0.475245 0.419741 -0.266152 -0.191783 -0.287980 0.384629 1.518522 -0.520732 0.100839 0.796222 -0.897091 0.091976 0.139854 -0.540176 -0.822948 0.433630 -0.208089 -0.771006 -0.039237 0.428823 -0.361659 -0.112257 -0.392916 0.316497 -1.076878 1.030510 0.049833 -0.748768 -0.376690 -0.256531
137 0.316189 -0.654311 -1.142669 -0.017486 1.288859 0.566037 -0.777112 -0.391100 -0.028708 -0.322616 -1.159909 0.340940 -0.964678 -0.346710 1.227167 -0.456326 -0.219109 0.130168 -0.312771 0.072897 0.330608 0.844192 -0.906474 0.157264 0.762446 0.394992 -0.853180 -0.503438 -0.128414 -1.512720 -0.184710 -0.264507
6 0.146743 -1.380744 -0.888961 0.716346 1.197143 -0.017510 -0.087193 -0.343357 -0.246293 -0.312947 -0.512996 0.046594 -0.300570 0.138021 1.641391 -0.376287 -0.755839 0.048628 -0.050671 0.256385 -0.250150 0.061973 -0.683207 0.206322 1.116539 1.078259 -0.194705 -0.322732 0.111566 -0.343525 -0.222891 -0.527045
431 -0.491431 -0.863555 -0.776315 -0.394572 0.006723 0.326972 -0.189127 0.826624 -0.516148 -0.001838 -0.005440 -0.333533 0.115792 0.247769 1.574406 -1.092978 0.396749 0.051048 -0.119847 0.320893 0.562933 0.226855 -0.587160 0.226179 0.043548 1.237449 -0.786668 -0.041068 0.553579 -1.003264 0.100260 0.014542
474 -0.488055 0.423727 0.203836 0.394839 -0.609200 0.655191 0.168577 0.352076 0.099080 -0.128998 0.001391 0.807957 -0.394799 -0.112113 -0.087758 -1.250384 -0.125710 -0.596876 -0.486794 -0.568764 -0.361911 0.408159 -0.190244 -0.333148 1.029384 -0.189225 -0.470662 -0.125140 0.686087 -0.445172 -0.472911 0.049548
619 -0.921610 -0.960707 -0.496891 -0.383448 -0.421147 0.259932 -0.001362 1.279387 -0.009094 -0.225438 0.228367 -0.405127 -0.116336 -0.044606 0.891150 -0.936721 0.170494 0.428710 -0.160642 0.228306 0.094711 1.004237 -0.747896 -0.259975 0.023339 1.012648 -0.965268 0.232010 0.504004 -1.061005 0.198991 0.011064
144 0.322308 -0.714003 -1.048148 0.201666 1.237188 0.556633 -0.732494 -0.437730 0.072462 -0.326735 -1.049943 0.398116 -0.996770 -0.353351 1.131820 -0.303113 -0.254858 0.133545 -0.313863 0.040417 0.268485 0.903863 -0.864983 0.167603 0.825115 0.387328 -0.675736 -0.516056 -0.216446 -1.436467 -0.134594 -0.374780
249 -0.525346 0.077950 -0.245568 -0.291661 -0.203350 0.148090 -0.060509 0.545024 0.811971 -0.037312 0.520075 0.719712 -0.642983 0.088179 -0.119616 -1.100702 -0.573193 0.107453 -0.368495 -0.420634 -0.777852 0.114149 0.089998 -0.314070 0.597102 0.620820 -0.707849 -0.064912 0.246459 -0.020791 -0.086592 0.299113
531 0.133036 -0.637964 -0.642557 0.137027 -0.490306 0.123428 0.071895 0.284371 1.166073 -0.402551 0.582229 0.824037 -0.796546 0.090375 -0.376826 -0.356047 -0.615853 -0.206254 -0.404727 -0.496474 -0.443360 0.368871 -0.113096 0.264988 0.573026 0.225825 -0.129099 -0.199236 -0.503577 -0.486867 0.174557 -0.742630
189 -0.504584 0.143472 -0.057627 -0.258905 -0.112032 0.237262 -0.057166 0.632365 0.764938 -0.227920 0.639655 0.578486 -0.515508 0.192920 -0.035982 -0.825183 -0.622573 0.276182 -0.265274 -0.448423 -0.711213 0.084572 -0.124783 -0.350955 0.540561 0.971450 -0.645988 -0.003445 0.185995 0.009567 -0.059163 -0.035853
476 -0.103107 -0.273880 -0.064266 -0.380802 -0.263489 0.175785 0.588756 0.189774 0.803854 -0.079937 -0.106050 1.318817 -0.503943 0.027326 0.147123 -0.713528 -0.364353 -0.228863 -0.457437 0.468561 -0.295875 -0.098472 0.674263 0.410386 0.294508 0.887097 -0.122172 0.094977 -0.436899 -0.874894 -0.251334 0.068627
557 -0.359600 -1.197244 -0.148052 -0.227591 -0.500082 -0.105802 -0.227621 0.323197 0.631871 0.192417 -0.249929 0.542680 -0.600034 0.249228 -0.661074 -0.675918 -0.615846 -0.271632 -0.125691 -0.722542 -0.704066 0.127358 -0.414406 0.112790 0.078282 0.520536 -0.271583 -0.218397 -0.132276 0.117751 -0.520961 -1.290679
293 0.215460 -0.154256 -0.114898 0.182115 -0.185979 0.388745 -0.168751 -0.599213 0.751860 0.675361 0.960333 1.192437 -0.127292 -0.585794 0.368566 -0.464316 -0.710748 0.558859 0.023165 -0.024490 -0.547726 0.845611 -0.219756 0.397570 0.672813 0.372294 -1.164565 -0.310128 -0.396005 -0.854685 -0.081078 0.326826
54 -0.338745 -0.781409 -0.157171 0.160215 -0.892090 0.503429 -0.018972 0.040847 0.066941 0.324080 0.479992 0.756144 -0.814813 0.270450 -0.372187 -1.100559 -0.017518 -0.194387 -0.094558 -0.211170 -1.046276 0.500171 0.030282 0.209124 -0.055476 0.815028 -0.794115 -0.148068 -0.318682 0.106035 -0.183148 0.293718
403 0.052986 -0.063431 0.363957 -0.821307 -0.041145 0.287345 0.550922 0.062820 0.818020 -0.194810 0.130632 1.291502 -0.733192 0.415168 0.013312 -0.957512 -0.322562 -0.483685 -0.556111 0.124008 -0.368520 -0.154462 0.343318 0.255875 0.769347 1.056866 -0.362278 0.032586 -0.355684 -0.533577 -0.238265 0.396227
158 -0.640501 -1.031511 0.520799 0.808331 0.010674 0.137058 0.189400 0.274944 0.206899 0.155591 -0.058997 0.434440 -0.166315 0.195147 0.802598 -1.066973 -0.024541 -0.133893 -0.872167 -0.444764 0.294758 1.384902 -0.053030 1.033609 -0.056645 1.257333 -0.446243 -1.390218 -0.835889 -0.320782 -0.357607 -1.197209
502 0.335709 -0.680765 -0.528587 0.278534 0.603536 0.702972 -0.640757 0.225259 -0.469988 0.632379 0.184743 -0.825128 -0.175665 -0.051284 0.983573 -1.890208 0.281283 -0.489843 -0.276448 -0.154475 0.506323 0.486641 -0.222532 1.220127 -0.435747 1.211575 -1.218073 -0.146641 0.412780 -1.109088 -0.400209 0.079592
325 -0.595338 0.565028 -0.423811 -0.156567 -0.461402 0.259422 -0.790751 0.041108 0.465180 0.178736 0.342120 1.096391 -0.446331 0.011923 -0.471866 -0.853864 -0.540177 0.277642 -0.393678 -0.876207 -0.591775 -0.119392 -0.237446 0.071915 0.730770 0.616280 -0.159551 -0.048218 0.753997 -0.641973 -0.403575 -0.865433
124 0.261166 -0.556917 -0.983546 -0.298687 1.041231 0.632756 -0.783582 -0.501206 -0.137608 -0.166287 -1.022529 0.589042 -0.907928 -0.284776 1.116093 -0.456902 0.006312 0.094933 -0.432535 -0.118682 0.469063 0.763999 -0.685067 0.384516 0.280538 0.428732 -0.792356 -0.597680 -0.348271 -1.640946 -0.074560 -0.136445
466 0.187916 -0.373906 -0.639499 -0.112945 0.795063 0.687385 -0.535193 -0.146484 0.209882 -0.330827 -1.353376 0.274226 -1.221069 -0.778239 0.608305 -0.535115 -0.314301 -0.206132 -0.582764 0.033355 0.327814 1.277534 -0.964130 0.225075 0.705154 -0.107329 -1.048161 -0.501027 -0.322266 -1.979591 -0.453250 -0.373180
187 -0.004770 0.033285 0.200734 -0.233816 -0.208353 0.588642 -0.456785 -0.132427 0.766225 -0.018010 -0.071429 -0.407372 -1.059762 0.232485 -0.155971 -0.832914 -0.381165 -0.617455 -0.511776 -1.323619 -0.477895 0.229894 -0.269356 0.345905 0.957112 0.008190 -0.217723 -0.169165 1.244547 -0.619192 0.192660 -0.817056
194 -0.712626 -0.905108 -0.597712 -0.496279 -0.456525 0.345900 -0.164407 1.065447 -0.162741 -0.067872 0.185105 -0.469592 0.059213 0.135752 1.015565 -1.034067 0.190371 0.302642 -0.133103 0.182961 0.246199 0.611090 -0.791610 -0.083136 0.011635 1.125664 -0.887582 0.143771 0.594757 -0.928576 0.162300 -0.043004
369 -0.208169 -0.386113 -0.703600 -0.480465 0.336974 0.756093 -0.690634 -0.119022 -0.144518 0.428707 0.233737 0.471830 -0.221903 0.595150 1.241899 -1.309963 0.696810 -0.029886 0.143850 -0.469139 -0.845385 0.067838 0.154253 -0.101774 0.384378 0.904981 -0.684972 -0.188351 0.107381 -0.390413 1.012982 0.221088
55 -0.670856 -1.020895 0.540468 0.856478 -0.130513 0.104973 0.165077 0.226634 0.264929 0.140571 -0.028046 0.523128 -0.152735 0.237091 0.654350 -0.991588 -0.057406 -0.117835 -0.836380 -0.554678 0.288470 1.325208 -0.042678 1.070889 -0.095724 1.227027 -0.351307 -1.327811 -0.859107 -0.254139 -0.392071 -1.252764
485 -0.001142 -0.744407 -0.094170 0.167943 0.654031 0.149741 -0.116961 0.340656 0.130303 0.022841 -0.174446 0.015538 -1.428148 -0.887866 1.262463 -1.328262 -0.310173 -1.035158 -0.251900 -1.318411 0.365321 1.595842 0.764248 0.857091 0.741868 0.221580 -0.168766 0.379681 0.149659 -0.507001 -0.661676 0.398733
445 -0.149378 0.175517 -0.298649 -0.120996 -0.349677 0.216643 -0.775084 0.327617 1.036180 -0.283152 0.220191 0.409643 -0.796147 0.255165 -0.187090 -0.755912 -0.626713 0.298644 -0.433014 -0.663050 -0.937300 0.579211 -0.249065 -0.265297 0.378432 0.193861 -0.787899 -0.031138 0.094298 -0.462847 0.186888 -0.137426
21 0.295484 -0.665644 -0.881549 0.148705 1.122109 0.463752 -0.538146 -0.296675 0.018649 -0.338816 -1.158735 0.294548 -0.949912 -0.541308 1.070005 -0.343957 -0.427023 -0.035927 -0.307784 0.134247 0.234972 0.881884 -0.938186 0.161671 0.865927 0.214800 -0.660435 -0.423978 -0.197220 -1.480528 -0.319350 -0.354828
538 -0.254215 -0.268320 -0.431288 0.884010 0.074398 0.710352 -0.212557 0.910833 1.007407 -0.470353 0.460464 0.004641 -0.509969 -0.291913 0.111873 -0.650224 0.394334 -1.040724 -0.188941 -0.233490 -0.311589 -0.401418 0.322358 0.542143 1.108382 0.522444 0.108032 -0.334090 -0.239141 -1.056298 -0.489352 -1.061123
467 -0.848953 -1.079653 -0.435068 -0.125620 -0.234666 0.137218 0.268588 1.454057 0.180928 -0.650996 0.075756 -0.076568 -0.428024 -0.157374 0.903512 -0.639943 -0.193191 0.382037 -0.093932 0.290032 -0.019153 1.514864 -0.979572 -0.464653 0.487241 0.613277 -0.873457 0.196152 0.347320 -1.061680 0.178774 -0.151495
75 0.168416 -0.418765 -0.629528 -0.124873 0.795956 0.693638 -0.525127 -0.166800 0.155603 -0.308345 -1.248210 0.331106 -1.170034 -0.711129 0.655724 -0.478584 -0.240803 -0.179097 -0.539143 0.029437 0.299407 1.180168 -0.902459 0.226457 0.624327 -0.075256 -0.920532 -0.501335 -0.382404 -1.870416 -0.347084 -0.340175
480 0.554187 -0.598355 -1.003952 0.477038 0.591241 -0.272977 0.003637 0.028353 -0.171981 -0.137307 -0.667868 0.161567 -0.099325 0.407691 0.923573 -1.114257 -0.798060 -0.176595 -0.178323 -0.007942 0.155882 -0.585285 -0.524369 0.557992 0.961281 1.043589 0.112727 -0.107238 0.351732 -0.290577 -1.033962 -0.533615
24 0.358730 -0.587292 -0.541686 0.317615 0.645848 0.612168 -0.586964 0.101451 -0.463705 0.576034 0.211636 -0.726595 -0.139605 -0.005682 1.038048 -1.796538 0.251532 -0.490804 -0.263533 -0.187418 0.467414 0.300953 -0.171471 1.202091 -0.362681 1.232174 -1.165320 -0.214977 0.439276 -0.964212 -0.448224 0.028049
109 0.024221 -0.499168 -0.650073 0.030042 -0.631061 -0.515865 0.477226 0.199289 0.540816 -0.253439 0.006944 1.116222 -0.425321 0.372988 0.195132 -0.891400 -0.666867 -0.443728 -0.429005 0.529550 -0.608589 -0.848256 0.520046 0.556391 0.322382 0.935234 -0.164277 0.278368 -0.151959 -0.605717 -0.380083 0.139543
291 -0.015861 0.180387 0.101246 0.058336 -0.443164 0.239171 0.259382 0.124040 1.342499 0.294932 0.140545 0.712015 -0.155897 0.134793 -0.087705 -0.984476 -0.761201 0.453564 -0.979571 -0.328718 -0.728750 -0.028711 -0.196263 -0.553561 0.343834 0.643625 -0.610112 -0.069298 0.152561 -0.444277 -0.633462 -0.371409
559 -0.929576 -1.320862 -0.513728 -0.341575 -0.370305 0.506908 0.162297 1.494338 -0.130127 -0.374034 -0.094195 -0.497289 -0.242121 -0.044907 1.227961 -1.062069 0.266819 0.131290 -0.175369 0.368601 0.449058 1.298873 -0.900347 -0.068438 0.306102 0.930699 -0.898938 0.034510 0.426929 -1.233119 0.253944 -0.188194
191 0.135126 -0.458808 -0.443761 0.457384 0.890450 0.088087 0.431426 -0.219942 -0.256999 -0.243582 -0.368271 -0.427522 -0.297693 0.349990 1.272590 -1.243400 -0.339840 -0.370782 -0.380429 0.207673 -0.095611 -0.297413 -0.434785 0.423737 0.816310 1.080604 -0.592387 -0.565745 0.746103 0.084224 -0.730317 -0.657439
252 -0.608382 -1.052586 0.526111 0.807160 -0.063436 0.087311 0.174405 0.203967 0.230272 0.122280 -0.046812 0.505098 -0.176032 0.227140 0.746075 -0.981118 -0.001081 -0.089543 -0.827869 -0.499138 0.328297 1.336675 -0.039605 1.037845 -0.103069 1.224506 -0.363323 -1.271971 -0.863284 -0.304209 -0.340535 -1.191842
57 -0.011590 -0.234849 0.107266 0.441468 -0.241320 0.367848 -0.100951 0.399916 0.500014 0.107649 0.224665 0.343623 -0.919628 -0.685102 0.487476 -1.054141 -0.430724 -0.973618 -0.154482 -1.117505 -0.003492 0.919747 0.690855 0.475139 0.645426 0.066816 0.075740 0.374041 0.202218 -0.321676 -0.476545 0.330322
111 0.230403 -0.300951 -0.884201 0.351630 -0.646728 -0.013699 -0.487294 -0.079485 0.825643 -0.455082 0.678354 0.541358 -0.743737 0.045593 -0.263189 -0.455800 -0.678456 0.148210 -0.342729 -0.739499 -0.451228 0.431817 -0.208178 0.270623 0.369046 0.600502 -0.166664 0.113559 -0.598449 -0.415780 0.371303 -0.533824
331 -0.578924 -0.922436 0.556341 0.746681 0.230619 -0.082648 0.325729 0.425356 0.518141 0.258877 -0.248683 0.172302 -0.228650 0.084368 0.495954 -0.991299 -0.152604 -0.202806 -0.976066 -0.237658 0.223410 1.290351 -0.037131 0.802407 0.032555 1.014993 -0.329358 -1.384861 -0.790704 -0.161739 -0.452020 -1.166875
416 0.006487 0.305068 0.056941 -0.098297 -0.314398 0.338092 0.285222 0.179140 1.246879 0.165694 0.163818 0.621951 -0.302037 0.147050 -0.055615 -0.999440 -0.703029 0.275232 -0.945533 -0.143108 -0.770193 -0.112225 -0.037751 -0.406697 0.330002 0.673511 -0.519608 -0.139470 0.110863 -0.280472 -0.567940 -0.271397
579 0.244036 -0.481767 -0.563950 0.452470 0.682495 -0.015572 0.184720 0.192828 -0.585253 -0.155457 -0.664080 -0.071169 -0.028281 0.278500 1.223831 -1.257620 -0.445812 -0.360491 -0.353272 0.256557 0.327884 -0.387345 -0.241388 0.387102 0.790015 1.069257 -0.460729 -0.167159 0.624386 -0.335767 -0.929022 -0.293167
552 -0.225343 -0.314805 0.020107 -0.615386 -0.359978 0.265087 0.768023 0.284323 0.711658 -0.411558 -0.441045 1.219129 -0.966236 0.252766 -0.235249 -1.093869 -0.280791 -0.682421 -0.571974 0.406566 -0.574470 -0.075723 0.487008 0.317295 0.748003 0.760086 -0.205639 -0.038561 -0.167894 -0.679672 -0.045229 0.061018
454 -0.477571 -0.392676 -0.586680 0.271562 -0.455716 0.174344 -0.134983 0.295656 1.041594 -0.270200 0.570267 0.308950 -0.925340 -0.532393 -0.122288 -0.511936 -0.337110 0.406507 -0.402578 -0.187609 -0.669840 0.019619 0.301211 -0.016034 0.352389 0.919017 -0.034201 0.058881 -0.661302 -0.645634 0.177162 -0.256979
353 0.317184 -0.686131 -1.009960 0.135701 1.213097 0.514381 -0.726806 -0.454619 0.039136 -0.280668 -1.003927 0.373952 -0.955155 -0.352173 1.083002 -0.365389 -0.226846 0.125666 -0.275194 0.057269 0.249732 0.825676 -0.804177 0.210546 0.736244 0.398390 -0.699263 -0.514090 -0.209795 -1.419121 -0.135461 -0.311646
452 -0.666400 -1.037066 0.431388 0.741200 -0.098675 0.084540 0.097479 0.186467 0.281981 0.146829 0.056297 0.560551 -0.174655 0.185800 0.648740 -0.925243 -0.043623 -0.060951 -0.786098 -0.538192 0.277217 1.253610 -0.051994 1.006278 -0.118189 1.197667 -0.353387 -1.270891 -0.880624 -0.258311 -0.349955 -1.127164
602 0.137476 -0.601262 -0.600554 0.144744 0.745169 -0.022267 0.308295 -0.566344 -0.078652 -0.239811 -0.404642 -0.273065 -0.313708 0.684991 0.869998 -1.025775 -0.736356 -0.229994 -0.294194 0.046392 -0.272497 -0.272280 -1.002134 0.385709 1.018924 1.102675 -0.466661 -0.695715 0.702186 0.204200 -0.756819 -0.671041
105 -0.638786 -1.034586 0.056675 0.388360 -0.126831 0.353596 -0.348530 -0.320151 -0.195364 0.049613 0.293724 1.241843 -0.295338 0.585205 0.934304 -0.593013 0.298266 0.328225 -0.578125 -0.844606 0.325838 0.861388 0.006511 0.685503 -0.493460 1.421802 -0.469890 -0.832782 -0.791833 -0.593522 0.095106 -0.716649
126 0.412037 -0.595567 -0.559146 0.248218 0.619532 0.770327 -0.731887 0.067529 -0.310472 0.717603 0.249180 -0.718826 -0.242350 -0.096500 0.912029 -1.878957 0.325081 -0.529666 -0.275139 -0.217237 0.457709 0.464116 -0.162247 1.314643 -0.500537 1.234465 -1.208662 -0.159946 0.323736 -1.121859 -0.381126 0.039883
210 -0.620964 -0.967598 0.461892 0.780356 -0.031365 0.087521 0.189557 0.218094 0.226008 0.166699 0.020016 0.534791 -0.191890 0.192291 0.659925 -0.965288 0.030827 -0.119831 -0.806956 -0.408770 0.251511 1.194839 0.069670 1.038584 -0.127670 1.239068 -0.338200 -1.227033 -0.858088 -0.266116 -0.360208 -1.102854
365 -0.951570 -1.062694 -0.436372 -0.355811 -0.548464 0.306790 0.199823 1.423415 0.145204 -0.473617 0.092042 -0.212857 -0.335855 -0.064402 0.791030 -0.847762 0.007830 0.340997 -0.175532 0.254586 0.022880 1.325519 -0.847374 -0.373572 0.297703 0.737324 -0.878338 0.208536 0.429155 -1.021675 0.305874 -0.064909
413 -0.397157 -0.676446 -0.622492 -0.464380 -0.677241 0.191104 -0.604961 -0.263790 0.262277 0.281468 -0.020046 0.270907 -0.427373 0.514792 -0.417329 -0.701549 -0.261410 0.175777 -0.478969 -1.133148 -0.800772 -0.174912 -0.339592 0.135503 0.394903 0.787885 -0.505614 0.241799 0.227127 -0.270694 -0.119807 -0.697127
69 -0.225091 0.308315 0.411123 0.130523 -0.451302 0.830692 0.184710 0.598207 0.383648 0.060754 -0.165774 0.510740 -0.836373 -0.318436 0.558458 -1.332237 -0.219176 -1.122713 -0.367652 -0.423234 -0.399759 0.338263 0.333695 -0.036492 0.999607 0.009564 -0.210040 -0.183914 0.772006 -0.514950 0.073467 -0.024654
523 0.256046 -0.432027 -0.803465 -0.108148 0.746251 0.531883 -0.677823 -0.315621 -0.761895 0.193337 -0.026309 0.042017 -0.193077 0.435931 1.302392 -1.497728 0.195855 -0.156558 -0.356759 -0.461408 0.444047 -0.360970 -0.048166 0.908918 -0.202482 1.114894 -1.089690 -0.533176 0.402583 -0.919923 -0.282655 0.087373
